tree
version=v4
num_class=1
num_tree_per_iteration=1
label_index=0
max_feature_idx=43
objective=binary sigmoid:1
feature_names=Denominació_/_Denominación tmed prec tmin tmax sol Day_of_week Public_holiday School_holiday Festival_de_les_arts Davis_Cup Elections Demonstrations Marathons Fallas Mascletá/Crida University_Entrance_Exams BigSound_Concerts Roig_Arena_Events Football_Matches San_Juan Summer Winter Autumn Spring estado_lag_1 estado_lag_2 estado_lag_4 estado_rolling_4 estado_rolling_8 estado_count_4 minutes hour_sin hour_cos month month_sin month_cos day day_sin day_cos week_of_year is_weekend is_rush_hour is_night
feature_infos=[0:143] [-2.2545203876092001:2.8214863732468749] [-0.20375132169671831:15.989898320303388] [-2.0558083217892915:2.0893829645148481] [-2.5141590924130219:3.9145625861692936] [-2.3792399718038624:1.6424220107313072] [0:8] [0:1] [0:1] [0:1] [0:1] [0:1] [0:1] [0:1] [0:1] [0:1] [0:1] [0:1] none [0:1] [0:1] [0:1] [0:1] [0:1] [0:1] [0:1] [0:1] [0:1] [-0.10589898643364827:12.896633782802645] [-0.11850524818905166:14.431854720270756] [0:4] [-2.2319035597564763:1.7124120082744325] [-1.2491536554358353:1.6290356124141006] [-1.1699487737412588:1.7936546036026702] [1:12] [-1.4886241769976802:1.3269116485725416] [-1.4692953549875252:1.3842841807265069] [1:31] [-1.38259118433865:1.4133964228312879] [-1.3882335581531804:1.4646719095811558] [1:52] [0:1] [0:1] [0:1]
tree_sizes=6134 7017 7026 7039 6993 6995 7007 7051 6977 6977 7051 6986 7021 7016 7035 7020 7028 7042 6991 6993 7014 7047 7010 7052 6997 7058 6981 7000 7024 7053 7020 7013 6970 7035 7037 7015 7002 6964 7042 7025 7006 7046 7022 7015 7039 7038 7058 6992 7056 7022 7069 7032 6982 6992 6985 6985 7049 7055 6988 7066 7062 7007 7036 7054 7033 7052 7045 7032 6985 6989 6989 7017 7008 7008 7034 7033 6996 7081 7039 7007 6961 7030 6987 7008 7031 7079 7047 6983 7002 7079 6979 7026 7014 7015 6992 6961 7017 7033 7006 6988 7111 7043 7017 7027 7050 6977 7052 7077 6931 7047 6999 7009 7041 7089 7018 7055 7028 7047 7109 7006 7138 7006 7026 7100 7059 7070 7022 6977 7079 7009 7007 7098 7042 7081 6983 7007 7015 7004 7000 7096 6981 7069 7018 7058 7001 7023 7048 7065 6990 7025 6980 6987 7009 7032 7000 7052 7041 6988 7044 7040 6997 6987 7002 7091 7019 7060 6984 7014 7057 7017 7081 7007 7010 7003 6995 6990 7035 7017 6890 7089 6998 7062 6976 7063 6928 6993 6981 7015 7076 7085 7033 6995 7010 7019 6929 6973 7024 6948 6995 7036 6994 7010 7018 6993 6977 6989 6976 6984 7016 6977 6987 6988 6941 6853 7043 6884 6973 7031 6885 6986 6982 7112 6880 6981 6963 7009 6975 6949 6994 6902 6932 6967 7035 6950 6908 6969 6949 6966 6956 6952 6967 6947 7054 6922 6931 6898 7056 6907 6907 6939 6968 6928 6930 7044 6907 6921 6993 6942 6969 6887 6934 6996 7015 6988 6913 6980 6917 6953 6849 6964 7014 6946 6919 7006 6920 6959 6984 6969 6944 7023 6960 6988 7009 6992 6951 6906 6960 6867 6957 6926 6822 6958 7016 7023 6861 6920 6911 6897 6922 6901 6854 6914 6981 6977 6947 6841 6882 6978 6969 7021 6925 6826 6935 6963 6857 6855 6937 6883 6965 6979 6889 6913 6933 6908 6876 7053 6921 6929 6991 7003 7006 6957 6936 6988 6993 6971 6895 6967 6826 6935 6983 6917 6882 6915 6893 6976 6967 6919 6911 6932 6908 6896 6969 7035 7000 6867 6904 6947 6948 6980 6985 6896 6893 6893 6844 6844 6902 7009 6905 7003 6921 6910 6983 6975 6927 6870 6933 6939 6873 6910 6969 6887 6927 6917 6947 6887 6888 6953 6841 6994 6864 6924 6902 6887 6901 6906 6851 6841 6925 6982 7008 6986 6882 6846 6875 6944 6878 6843 6891 6887 6908 6957 6951 6808 6911 6937 6953 6868 6832 6976 6887 6967 6894 6940 6927 6897 6958 6934 6954 6858 6975 6970 6913 6839 6874 6873 6837 7040 6901 6949 6874 6866 6919 6949 6901 6928 6977 6958 6903 6844 7007 6972 6970 6921 6821 6895 6965 6903 7005 6927 6840 6975 6912 6934 6970 6930 6890 6917 6815 6949 6890 6957 6855 6912 6966 6959 6891 6908 6947 6881 6861 6917 6868 6982 6951 6921 6932 6909 6948 6958 6852 6944 6913 6969 6968 6895 6909 6903 6904 6962

Tree=0
num_leaves=63
num_cat=0
split_feature=29 41 33 32 33 32 32 25 33 32 29 33 32 15 42 3 33 32 33 35 33 3 0 13 32 33 15 32 32 33 32 32 32 32 33 33 1 32 32 33 35 32 33 33 32 3 33 40 32 3 36 40 32 1 3 32 40 0 32 32 33 42
split_gain=261789 3815.08 4187.68 3806.34 6217.72 5173.08 9054.62 3542.22 2582.03 3037.35 1649.99 1394.06 1605.77 1298.67 1275.37 1108.73 899.979 1920.97 831.641 659.913 597.095 530.16 385.527 380.835 365.108 2553.89 327.324 323.279 295.153 593.326 270.069 1501.59 262.531 501.25 257.86 463.465 255.339 218.618 359.171 239.244 200.931 200.093 632.679 188.078 1623.32 180.098 170.896 150.722 150.261 147.895 136.623 134.173 203.358 179.554 127.182 123.811 265.015 132.615 122.748 130 119.743 1251.4
threshold=-0.11833484070553114 1.0000000180025095e-35 1.0435690164297053 1.4806249160934006 -0.86373157474397666 -0.75891378398989173 1.2051298653500573 1.0000000180025095e-35 -0.071643977033698972 -1.1395808022537424 1.6705863783180537 -0.590207097597087 1.3864975518441462 1.0000000180025095e-35 1.0000000180025095e-35 0.18633462128867251 0.68717406165407902 -1.2368401738956016 -0.42901226199250214 0.635462930607406 1.3593803608282029 0.84983760222497007 98.500000000000014 1.0000000180025095e-35 -0.95176008858387728 -0.66516618960493001 1.0000000180025095e-35 0.18990238743732807 1.3316375104331828 -0.66516618960493001 1.3865060678522221 1.4362067084785164 1.271441501870145 1.207535932271578 0.50524072001091225 0.31194611161885805 -1.2211269916916934 0.56238509073767762 -0.36074878382608405 -1.1194574354933067 1.1407180289305121 -1.2491497276370722 0.118460217537654 -0.25519681378281617 -1.2001143642932928 1.1683353098010076 -0.43014868047989446 19.500000000000004 -1.1396268709703585 0.78992598811404824 0.66725082794757251 46.500000000000007 -1.1396268709703585 -0.7498435776150848 -0.098394094403263341 1.5194786087721646 45.500000000000007 17.500000000000004 1.271441501870145 -0.52957279914125599 1.3593803608282029 1.0000000180025095e-35
decision_type=2 2 2 2 2 2 2 2 2 2 2 2 2 2 2 2 2 2 2 2 2 2 2 2 2 2 2 2 2 2 2 2 2 2 2 2 2 2 2 2 2 2 2 2 2 2 2 2 2 2 2 2 2 2 2 2 2 2 2 2 2 2
left_child=1 2 3 4 13 8 -7 10 24 14 -2 19 -13 54 -10 16 17 22 21 49 27 30 34 26 43 40 51 48 29 32 47 -32 33 -21 35 41 -25 38 -15 -40 -26 -16 -43 -6 -45 50 -38 -14 -12 -8 -17 -3 53 -53 -1 56 -5 -58 59 -28 61 -4
right_child=7 23 60 55 5 6 11 -9 9 -11 20 12 18 37 15 45 -18 -19 -20 28 -22 -23 -24 36 25 -27 58 -29 -30 -31 31 -33 -34 -35 -36 -37 46 -39 39 -41 -42 42 -44 44 -46 -47 -48 -49 -50 -51 -52 52 -54 -55 -56 -57 57 -59 -60 -61 -62 -63
leaf_value=-0.077440871112577636 0.099973584573390867 -0.094988179062618916 0.099836244541484723 -0.091193095019859463 -0.085567604624349508 0.09999169825940174 -0.060915492957746488 0.099445552720561353 0.099910767400356926 0.099966375252185602 0.057967465453909385 0.09995466223364062 -0.018504020313161236 -0.057907412362857916 -0.038316722037652268 -0.049332726721261752 -0.062494906275468637 0.099958887213923528 0.099894810659186539 -0.030729166666666665 -0.075768892794376097 -0.077518490181076261 -0.064344783715012718 -0.098518041237113427 -0.075795285440075924 0.099937199078919833 -0.076162848854656406 -0.035934413275385227 -0.071171381809679676 0.099869678540399673 0.099948382656572604 -0.031399376515413926 -0.064842281178190936 0.099846311475409844 -0.048987358977844231 0.099855560905151686 0.051550584646670061 -0.06304115446285409 0.0055464659685863869 0.099826288361320223 -0.031704389574759947 -0.020046478730928564 0.099893880438627514 -0.08730929264909848 0.099889380530973459 -0.091343588133730974 -0.062845445240532247 -0.063209797995864472 0.012965933754836276 -0.091261214630779852 -0.084794465877344682 -0.069939432578897051 -0.086956101956745635 0.019239500567536892 -0.089226772311918931 -0.098502677927695959 0.053104212860310418 -0.047779675491033312 -0.099481631733153039 -0.039796338202016043 -0.094810146731108727 -0.090382056026227814
leaf_weight=4242.75 567.75 11695.25 91.5 654.5 3209 1806.75 1320.5 39525.75 168 446 285.75 330.75 472.5 186.75 406.25 989 981.5 364.75 142.5 297.5 227.5 392 471.5 77.5 2318.25 238.75 499.75 253 213.75 115 290.5 866 239.25 97.5 367.75 103.75 98.25 187 305.5 86.25 291.5 494.75 141.25 793 135.5 637 48.75 314.25 529.75 579.5 375.75 156.75 1553.5 88 5023 3883.5 45 117 221.75 486 6910.5 1540.25
leaf_count=16971 2271 46781 366 2618 12836 7227 5282 158103 672 1784 1143 1323 1890 747 1625 3956 3926 1459 570 1190 910 1568 1886 310 9273 955 1999 1012 855 460 1162 3464 957 390 1471 415 393 748 1222 345 1166 1979 565 3172 542 2548 195 1257 2119 2318 1503 627 6214 352 20092 15534 180 468 887 1944 27642 6161
internal_value=0 -0.0679834 -0.0605262 -0.0528933 -0.046427 -0.0305853 0.0025166 0.0962692 -0.0497257 -0.0255105 0.0289025 -0.028536 -0.00350531 -0.0786604 -0.0356858 -0.0399599 -0.0222851 -0.005487 -0.0173215 -0.0530876 -0.00223362 -0.0244803 -0.0248672 -0.0898084 -0.070339 -0.0565523 -0.0907956 0.0134241 -0.0193594 -0.00456396 -0.0137752 0.00159519 -0.0235201 0.00150595 -0.012564 -0.000868162 -0.0251336 -0.0160593 -0.000855513 0.0263366 -0.0708738 -0.010908 0.00659488 -0.0798277 -0.0599774 -0.0693708 0.0135622 -0.0363729 0.0287457 -0.0701779 -0.0591054 -0.0930289 -0.0802791 -0.0378599 -0.0838315 -0.0947735 -0.0770206 -0.0197101 -0.0658289 -0.0582442 -0.0919267 -0.0797071
internal_weight=100000 58610.5 43685 35142.8 30442.8 20411.5 7478.25 41389.5 12933.2 5947.25 1863.75 5671.5 2808.5 10031.2 5501.25 5333.25 3331.5 2350 2477.75 2863 1296 2335.25 1985.25 14925.5 6986 2848.5 14701 1068.5 963 749.25 1943.25 1156.5 634.25 395 1513.75 1146 224.5 765.5 578.5 391.75 2609.75 1042.25 636 4137.5 928.5 2001.75 147 786.75 815.5 1900 1364.75 13493.5 1798.25 244.75 9265.75 4700 816.5 162 1207.5 985.75 8542.25 1631.75
internal_count=400000 234442 174740 140571 121771 81646 29913 165558 51733 23789 7455 22686 11234 40125 22005 21333 13326 9400 9911 11452 5184 9341 7941 59702 27944 11394 58804 4274 3852 2997 7773 4626 2537 1580 6055 4584 898 3062 2314 1567 10439 4169 2544 16550 3714 8007 588 3147 3262 7600 5459 53974 7193 979 37063 18800 3266 648 4830 3943 34169 6527
is_linear=0
shrinkage=0.05


Tree=1
num_leaves=63
num_cat=0
split_feature=29 8 43 33 25 32 32 32 33 33 32 29 33 32 32 15 6 6 33 32 33 33 33 14 40 6 37 39 3 32 33 32 33 33 32 33 0 40 5 13 1 6 42 5 0 32 32 33 0 5 32 33 1 33 32 32 5 33 33 32 6 6
split_gain=236798 6179.79 4097.33 3444.26 3212.7 2935.52 5949.36 5435.83 1650.46 2437.91 2807.72 1493.78 1165.86 1076.81 1021.97 977.262 788.921 776.542 726.653 1183.98 782.463 539.625 514.74 464.744 438.326 387.393 343.497 386.018 343.415 313.217 311.817 306.386 712.785 302.684 272.819 569.46 256.043 250.392 241.979 257.349 231.083 216.93 212.901 205.612 194.849 193.495 274.232 215.847 187.142 180.661 174.709 472.112 169.212 167.153 958.725 163.314 158.947 154.39 151.742 812.315 151.149 1043.06
threshold=-0.11833484070553114 1.0000000180025095e-35 1.0000000180025095e-35 -0.86373157474397666 1.0000000180025095e-35 1.4806249160934006 -0.68609407802117917 1.2051298653500573 0.87858307839747118 -0.071643977033698972 -1.2001143642932928 1.6705863783180537 -0.590207097597087 -0.75891378398989173 1.3864975518441462 1.0000000180025095e-35 5.5000000000000009 7.5000000000000009 0.50524072001091225 -1.2368401738956016 0.31185291493070555 1.3593803608282029 -0.42901226199250214 1.0000000180025095e-35 19.500000000000004 1.0000000180025095e-35 6.5000000000000009 0.52338764249520264 0.18633462128867251 -0.95176008858387728 -0.66516618960493001 1.3316375104331828 -0.66516618960493001 -0.97140837452351914 1.271441501870145 -0.73593748796181946 98.500000000000014 18.500000000000004 1.5532174099746097 1.0000000180025095e-35 -1.2211269916916934 1.0000000180025095e-35 1.0000000180025095e-35 1.6069590567346903 12.500000000000002 0.56238509073767762 -0.36074878382608405 -1.1194574354933067 1.5000000000000002 0.74244059421004205 -1.2491497276370722 0.118460217537654 -0.22416683092900394 -0.25519681378281617 -1.2001143642932928 1.2051298653500573 0.12299660711730062 -0.43014868047989446 1.2139160988531914 -1.056349400002029 5.5000000000000009 7.5000000000000009
decision_type=2 2 2 2 2 2 2 2 2 2 2 2 2 2 2 2 2 2 2 2 2 2 2 2 2 2 2 2 2 2 2 2 2 2 2 2 2 2 2 2 2 2 2 2 2 2 2 2 2 2 2 2 2 2 2 2 2 2 2 2 2 2
left_child=1 2 3 15 11 6 8 -8 9 13 18 -2 24 16 -14 25 48 -18 19 20 28 33 37 26 31 -1 27 -3 36 -19 -31 32 34 -13 35 -9 50 -16 39 -29 -41 -10 -7 -40 -20 46 -17 -48 -5 55 -11 -52 56 -50 -55 -25 -39 -42 59 -43 -27 -62
right_child=4 23 -4 5 -6 42 7 12 41 10 -12 21 14 -15 22 45 17 29 44 -21 -22 -23 -24 49 -26 60 -28 38 -30 30 -32 -33 -34 -35 -36 -37 -38 52 43 40 57 58 -44 -45 -46 -47 47 -49 53 -51 51 -53 -54 54 -56 -57 -58 -59 -60 -61 61 -63
leaf_value=0.10362228049927763 0.095217425930137378 0.098703922085094459 -0.092231368505528113 0.0023550284847133444 0.094711154884209156 0.1031463231542013 0.095470209722591223 -0.031541099707692762 0.095815793598439961 -0.029685344873968102 0.096513324201511208 -0.031222421583560762 0.095198074652497647 0.09511321921792977 0.0093319975463864273 -0.053061804200082753 0.099769814833953141 -0.063248685445536107 -0.00051139819614076675 0.095950248968794546 0.097367307034315023 -0.072087237943502774 0.095134277116150467 -0.0044823309275888014 -0.063366403775524313 -0.083339371984714875 -0.087187887537355485 -0.078546081909731599 -0.064729620057841317 -0.024897101665977632 0.095006403919050839 -0.063946549584371029 0.096862685130286535 0.028862177492776614 -0.062036983955345543 0.09638995588857735 -0.058155883743458842 0.02834153196285559 0.098945221322813345 -0.093829474843439231 0.049008757142559256 -0.077288162976316854 -0.086976028065248956 -0.042353979802619124 -0.058845606270489174 -0.063016592003501126 0.0024162135049024956 0.095071283796704972 -0.078449093547063212 -0.081838786444918918 -0.010426579321304896 0.095142724720916921 -0.04159675593043978 -0.078873196517171965 0.095094935545064457 -0.093230013911635712 -0.056821358546254724 -0.059769496417024497 -0.090640946768511463 0.097383473894593578 0.10401962545100454 -0.075859539499875117
leaf_weight=28.953748166561127 566.33373968303204 32.182305201888084 4913.2544964551926 81.605122581124306 39428.18906776607 14.718005463480948 1555.368810147047 356.10285386443138 17.458704754710197 348.62203449010849 571.97030793130398 286.19586072862148 316.70829460024834 112.46864274144173 991.65718913078308 173.60442139208317 109.78763267397881 630.57330229878426 163.07234896719456 256.65511664748192 133.72866521775723 227.17379927635193 129.17746987938881 324.6113616079092 1004.5898801535368 5072.9581742882729 19140.626375928521 5839.586682587862 465.2646566182375 490.65756849944592 60.847943723201752 282.42682060599327 145.93553677201271 781.96030730009079 288.45742236077785 114.99211587011814 256.98246423900127 202.78875660896301 29.438523635268211 77.312255352735519 98.184756562113762 1139.4991369694471 2259.1802526861429 199.86884236335754 1182.0398132652044 168.33269733190536 276.49787399172783 81.297294616699219 3236.4869877994061 160.2880647778511 436.95611041784286 139.65131565928459 621.44864037632942 455.1320972442627 95.760882496833801 61.625700682401657 74.944540545344353 48.701895698904991 1586.2892828881741 70.581627160310745 85.859802544116974 1288.507381439209
leaf_count=116 2271 129 19698 327 158103 59 6237 1425 70 1395 2293 1145 1270 451 3969 695 440 2527 653 1029 536 910 518 1300 4023 20327 76720 23403 1863 1965 244 1131 585 3129 1155 461 1029 812 118 310 393 4565 9057 801 4733 674 1106 326 12967 642 1748 560 2488 1824 384 247 300 195 6359 283 344 5163
internal_value=2.60004e-07 -0.0647059 -0.0501645 -0.0426691 0.0916805 -0.0321882 -0.0254699 0.0148271 -0.0458314 -0.0356083 -0.00593163 0.0274895 -0.0128667 -0.0578641 0.0117039 -0.0724634 -0.0612006 -0.0273605 -0.0232562 -0.00442604 -0.0188967 -0.00212318 -0.00138832 -0.0828679 -0.0390551 -0.0785287 -0.0838472 -0.0737361 -0.0283424 -0.0391796 -0.0116442 -0.0184878 -0.00429792 0.0127573 -0.023751 -0.000289277 -0.0140136 -0.00798983 -0.0746203 -0.0765274 -0.0239127 -0.0793548 -0.0857388 -0.0241569 -0.0517778 -0.0163171 -0.00150556 0.0235037 -0.0724977 -0.0372213 -0.00174274 0.0151452 -0.0270976 -0.0741118 -0.0486117 -0.0186758 0.0053307 0.012892 -0.0804536 -0.0670886 -0.0793491 -0.0646117
internal_weight=99792.1 58502.3 32489.9 27576.6 41289.9 20400.6 18126.7 6084.6 12042.1 9228.26 3954.94 1861.66 4529.23 5273.32 2336.72 7176.01 5160.85 1291.87 3382.97 2037.86 1781.21 1295.33 2020.02 26012.4 2192.5 6476.28 25465.9 6325.28 1647.48 1182.08 551.506 1187.91 905.488 1068.16 759.552 471.095 1182.21 1890.84 6293.09 6063.79 224.199 2813.83 2273.9 229.307 1345.11 699.732 531.4 357.795 3868.99 546.525 925.229 576.607 899.182 3787.38 550.893 386.237 277.733 146.887 2796.37 1210.08 6447.33 1374.37
internal_count=400000 234442 130184 110486 165558 81735 72619 24374 48245 36968 15839 7455 18137 21129 9357 28751 20678 5176 13546 8160 7131 5184 8087 104258 8780 25950 102069 25349 6595 4736 2209 4757 3626 4274 3041 1886 4732 7569 25220 24301 898 11277 9116 919 5386 2801 2127 1432 15502 2189 3703 2308 3600 15175 2208 1547 1112 588 11207 4848 25834 5507
is_linear=0
shrinkage=0.05


Tree=2
num_leaves=63
num_cat=0
split_feature=28 8 43 33 31 31 31 31 33 31 33 15 31 33 6 6 33 33 33 33 33 15 33 35 31 31 6 13 31 33 31 33 31 31 33 6 1 41 0 1 31 33 0 0 33 31 37 40 6 36 33 33 6 41 1 31 35 33 33 0 40 40
split_gain=213109 6294.05 4200.89 3290.52 2520.55 3276.59 2463.94 4422.23 2685.65 1705.01 1075.32 994.094 934.535 862.648 822.855 784.075 700.034 798.967 965.728 668.274 1230.8 498.84 468.427 455.014 432.761 1404.42 351.932 310.745 283.832 258.486 1304.19 253.266 1455.72 240.884 420.158 230.401 224.82 320.476 261.862 206.707 200.82 360.758 189.54 318.877 186.175 557.593 183.339 228.153 176.851 173.284 173.175 819.945 172.525 234.823 234.006 179.751 169.2 161.477 813.452 159.927 156.978 156.852
threshold=-0.10535109030884564 1.0000000180025095e-35 1.0000000180025095e-35 -0.86373157474397666 1.0368739907062032 -0.93111787081281239 0.24241521800783875 -0.72130984448204993 -0.071643977033698972 0.70534043992148898 -0.590207097597087 1.0000000180025095e-35 -0.84719176451954303 -0.071643977033698972 5.5000000000000009 7.5000000000000009 0.69540227887373474 0.68717406165407902 0.50527630683676483 0.50524072001091225 0.31185291493070555 1.0000000180025095e-35 -0.42901226199250214 0.635462930607406 0.78851163980259653 0.705376699830215 1.0000000180025095e-35 1.0000000180025095e-35 1.3767417959911554 -0.51137092218141988 -0.88914347561786611 -0.42901226199250214 0.53414509161749035 -0.80523069200043607 -0.66516618960493001 1.0000000180025095e-35 1.4444308332778573 1.0000000180025095e-35 13.500000000000002 -1.2211269916916934 -0.76325898704989914 -0.73593748796181946 117.50000000000001 114.50000000000001 1.2139160988531914 1.1249832279994088 29.500000000000004 18.500000000000004 1.0000000180025095e-35 0.66725082794757251 -0.25519681378281617 -0.071665583162674878 5.5000000000000009 1.0000000180025095e-35 -0.94924693498159363 -0.45183247656330389 -0.68329599485022319 -1.1194574354933067 -1.0571744020489515 1.5000000000000002 45.500000000000007 45.500000000000007
decision_type=2 2 2 2 2 2 2 2 2 2 2 2 2 2 2 2 2 2 2 2 2 2 2 2 2 2 2 2 2 2 2 2 2 2 2 2 2 2 2 2 2 2 2 2 2 2 2 2 2 2 2 2 2 2 2 2 2 2 2 2 2 2
left_child=1 2 3 11 5 13 7 10 14 -10 23 26 22 61 31 -16 17 18 19 20 24 27 29 -7 25 56 -1 36 35 -12 -31 59 -33 -25 40 -6 37 38 -3 -29 -35 -42 43 -13 45 -37 47 49 -40 -17 -34 -52 -23 54 -54 -55 -11 -28 -59 -8 -60 -5
right_child=-2 21 -4 4 28 6 8 -9 9 16 12 42 -14 -15 15 46 -18 -19 -20 -21 -22 52 -24 33 -26 -27 57 39 -30 30 -32 32 50 34 -36 44 -38 -39 48 -41 41 -43 -44 -45 -46 -47 -48 -49 -50 -51 51 -53 53 55 -56 -57 -58 58 60 -61 -62 -63
leaf_value=0.098188809224553655 0.089326394309649115 -0.045052068331549115 -0.088110640567832091 -0.088105272302079693 0.091686472501510144 -0.054528856784676172 0.0090458817756751478 0.091176956278136365 0.091416314256135944 -0.06941002167259612 -0.029096999668725851 -0.016893217506161462 0.091112287427436794 0.093689383787600819 0.094452386968085056 0.0069022174494113644 0.094890074997666829 -0.067135968748848404 0.0952719194715103 -0.056166998868086015 0.092223796276899431 -0.068814037628911418 0.091085317345025618 -0.059447891031918436 -0.044620719830042253 0.092933638525692946 -0.083628837639208434 -0.089766690404202445 0.098084785699793495 -0.024180236345930538 0.095262963828466218 0.097440240409166046 -0.088094497985662559 -0.052495010071660603 0.090969451964867373 -0.066589583558793478 -0.090710987548137334 -0.083589219948509097 0.10020359686833165 0.010371200697804487 -0.020723388520510082 0.090967877364950211 -0.083112917313799439 0.08489374013457382 -0.085006662043383752 0.093494915060168424 0.045488003108894226 -0.059628160572689687 -0.074205642135180133 -0.046138138691423726 0.091599214521643713 -0.073293642812328558 -0.026299421486108698 -0.089461275384831451 0.098346756651656694 -0.03112859308942293 -0.01681924416959216 0.10383187511199435 -0.075571789420305929 -0.073125004089749424 -0.050658783190784068 -0.054812394613905815
leaf_weight=29.740876287221909 39913.531914114952 892.93574604392052 4962.1149751245975 1830.3194044977427 21.078376084566116 1338.9496073424816 60.372704729437828 1373.4485653787851 466.48498786985874 202.831288844347 762.64965218305588 572.7754939198494 324.16022196412086 72.275791436433792 138.00150173902512 365.48613423109055 153.04991945624352 596.93391014635563 227.12543727457523 654.48741561174393 318.67785140872002 681.60578712821007 131.25495138764381 179.92866089940071 715.34444014728069 324.9891901165247 2590.9448729902506 76.787569969892502 24.455677330493927 836.8137908577919 314.27920530736446 157.92263300716877 466.43106515705585 201.19020538032055 118.8493782132864 1198.0093254297972 4599.158413335681 11922.229648560286 14.458924829959868 156.02637426555157 264.99241717159748 99.293589055538177 83.536272078752518 88.778822481632233 1622.022476285696 56.871675357222557 73.409180596470833 543.77081193029881 6935.4843797683716 265.81012177467346 89.730427950620651 468.57950232923031 103.19804400205612 186.87621288001537 59.127625778317451 452.03648193180561 623.04368531703949 67.927298590540886 3141.9646154791117 2776.9693883508444 794.54659332334995 440.49081145226955
leaf_count=119 161143 3594 20023 7383 85 5377 242 5546 1883 814 3054 2298 1309 291 555 1468 615 2396 913 2626 1285 2742 530 723 2869 1311 10432 310 98 3350 1261 636 1878 808 480 4820 18543 48070 58 626 1061 401 335 356 6542 229 295 2185 27928 1068 362 1887 414 752 237 1815 2496 273 12653 11175 3198 1774
internal_value=1.72071e-06 -0.0601075 -0.0456782 -0.03823 -0.0280998 -0.0210986 -0.0128347 0.0125028 -0.0283833 0.001191 -0.0111297 -0.0669562 0.0122514 -0.0762375 -0.0518123 -0.0185907 -0.00983795 -0.0142171 -0.00391225 -0.011851 0.00142367 -0.0784941 -0.0002505 -0.0362738 -0.014083 0.00489629 -0.0731145 -0.0801924 -0.0711662 -0.00652186 0.00843205 -0.0632683 -0.0438117 -0.00798317 0.00554777 -0.0725996 -0.0807419 -0.0784215 -0.0705642 -0.0226595 -0.0124099 0.00972323 -0.0121898 -0.00321536 -0.0738081 -0.0593236 -0.0310966 -0.0358887 -0.0738406 -0.0154265 -0.0655923 -0.0467718 -0.050315 -0.0345651 0.0191051 -0.0482095 -0.0297482 -0.0738892 -0.0675843 -0.0713746 -0.070546 -0.081652
internal_weight=99226.6 59313 33233.1 28271 20900.8 17978.3 15635.3 5945.81 9689.45 4282.97 4572.36 7370.21 2369.16 2343.09 5406.48 1386.48 3816.48 3663.43 3066.5 2839.37 2184.89 26079.9 2045 2203.2 1866.21 1150.86 6625.12 24597.1 2922.44 1913.74 1151.09 4020.01 1182.66 864.254 684.326 2897.98 24364.3 19765.1 7842.88 232.814 565.476 364.286 745.091 661.554 2876.9 1254.88 1248.48 1175.07 6949.94 631.296 1024.74 558.31 1482.84 801.238 162.326 638.913 825.875 6595.38 4004.44 2837.34 3936.51 2270.81
internal_count=400000 238857 133768 113745 84081 72307 62859 23900 38959 17208 18354 29664 9504 9448 21751 5571 15325 14710 12314 11401 8775 105089 8195 8850 7490 4621 26675 99129 11774 7665 4611 16180 4763 3473 2750 11676 98193 79650 31580 936 2270 1462 2989 2654 11591 5049 5016 4721 27986 2536 4127 2249 5960 3218 651 2567 3310 26556 16124 11417 15851 9157
is_linear=0
shrinkage=0.05


Tree=3
num_leaves=63
num_cat=0
split_feature=30 8 33 33 32 32 32 33 32 25 31 32 33 35 32 6 6 15 33 35 28 3 6 33 31 13 32 33 40 6 32 31 33 1 41 6 31 33 4 1 3 1 1 32 40 32 32 33 1 35 2 4 33 32 31 32 32 40 6 6 31 31
split_gain=194218 5755.08 3803.68 3248.75 5084.5 3458.53 4840.77 1934.93 1735.49 1403.39 1117.95 2457.39 986.107 916.762 861.054 721.715 655.035 461.672 434.479 408.641 379.885 369.464 311.731 289.578 416.065 285.397 282.379 354.627 224.445 223.585 213.169 212.074 375.579 210.29 300.229 239.663 216.377 254.991 293.23 289.938 221.537 328.214 199.871 198.938 197.746 192.816 278.586 364.741 188.895 188.698 187.279 209.096 182.653 956.705 177.694 320.546 176.128 168.562 192.517 366.768 158.572 583.472
threshold=1.0000000180025095e-35 1.0000000180025095e-35 1.0435690164297053 -0.86373157474397666 1.4806249160934006 -0.75891378398989173 1.2051298653500573 -0.071643977033698972 -1.1395808022537424 1.0000000180025095e-35 0.95711533553297135 -1.2368401738956016 -0.590207097597087 1.1383890329845141 1.3864975518441462 5.5000000000000009 7.5000000000000009 1.0000000180025095e-35 -0.42901226199250214 0.635462930607406 3.1429448985093007 0.18633462128867251 1.0000000180025095e-35 0.50524072001091225 0.78927634707079941 1.0000000180025095e-35 -1.056349400002029 -0.51137092218141988 18.500000000000004 1.0000000180025095e-35 -1.0577045977052282 -0.80523069200043607 -0.66516618960493001 1.4444308332778573 1.0000000180025095e-35 1.0000000180025095e-35 -0.46954824516640226 1.0435690164297053 -0.99157859538735493 -1.1667570365162605 0.64248042086983814 1.1171326388344236 1.0268615332093927 1.271441501870145 7.5000000000000009 0.56238509073767762 -0.52957279914125599 -1.0571427621094112 -1.2211269916916934 -0.68329599485022319 -0.20374397610640785 1.0761445510195811 -0.25519681378281617 -1.2001143642932928 -0.76325898704989914 1.207535932271578 -0.52957279914125599 45.500000000000007 5.5000000000000009 7.5000000000000009 -0.84723390595698811 -0.88914347561786611
decision_type=2 2 2 2 2 2 2 2 2 2 2 2 2 2 2 2 2 2 2 2 2 2 2 2 2 2 2 2 2 2 2 2 2 2 2 2 2 2 2 2 2 2 2 2 2 2 2 2 2 2 2 2 2 2 2 2 2 2 2 2 2 2
left_child=1 2 3 13 5 7 -7 15 10 20 11 21 19 22 -14 52 -17 25 28 -8 -2 23 -1 24 44 33 -18 -28 -16 -4 -22 -21 54 34 35 -3 -37 38 39 -38 -40 42 -42 56 -9 46 -15 -48 -27 -46 -43 -52 -5 -54 -33 -56 -19 -24 -59 -60 61 -30
right_child=9 17 29 4 -6 6 12 8 -10 -11 -12 -13 14 45 18 16 26 43 -20 31 30 -23 57 -25 -26 48 27 -29 60 -31 -32 32 -34 -35 -36 36 37 -39 40 -41 41 50 -44 -45 49 -47 47 -49 -50 -51 51 -53 53 -55 55 -57 -58 58 59 -61 -62 -63
leaf_value=0.093627967533982989 0.08896777829592542 0.098188229929712406 0.091511201692952127 -0.06793538339523425 -0.081319586863100132 0.087823622511766425 -0.052775176961180371 -0.049355337147415197 0.089418737400315043 0.087092216461405497 -0.057752784785749162 0.089495797987796263 0.087600641324696207 -0.060988642946137143 0.0095219693469892844 0.090861661488393045 -0.068732607383536093 -0.058539967428111454 0.087699058981316982 -0.056760290968494845 0.046588254191613901 -0.053617126815850027 -0.076361209560364018 -0.046824595037419425 0.088227314348536368 -0.086213925291422161 -0.025215025020107907 0.098049855416314377 -0.034608850579328297 -0.079928932580511286 -0.018664146452052544 -0.050076681139724001 0.087392890182368371 -0.087070025193706935 -0.080154614519690345 -0.079572586487566599 -0.055608639133617792 -0.08175005270062348 -0.075625754719809646 0.019903232331717785 -0.033144851989852536 -0.072520278008411349 0.042306883786470295 -0.087653420333196314 -0.053024522084593344 -0.0573282820571554 -0.008757851955997915 0.098541308114071649 0.0098547531371554874 0.0098531843718879294 0.10796826758938988 -0.040831000719384496 -0.070144111217314661 0.087914127598271177 -0.019591302995085214 0.087390378493740498 -0.020443412072157247 -0.066582447713437146 0.099529864657269373 -0.046346674835247757 -0.051137370283615903 0.092214067977654329
leaf_weight=28.385135501623154 151.69332285225391 21.656535550951958 18.971887916326523 3332.3035208880901 3328.0479225218296 1696.6485594660044 1326.6880494058132 240.01680141687393 412.36454911530018 38742.416180357337 1253.2487679868937 595.62546607851982 319.23168735206127 193.63123281300068 999.14711047708988 119.28854376077652 364.08887313306332 607.83938020467758 129.90291450917721 179.05219340324402 177.02435410022736 722.5179441422224 4924.3499420881271 434.42297346889973 121.72158734500408 75.978202670812607 796.29167957603931 62.851665273308754 433.71804927289486 6069.8511393070221 426.52445714175701 200.38560673594475 113.39172978699207 4553.0319235473871 11814.089316040277 2649.4913956820965 271.81285336613655 1235.4372322410345 1465.3680015206337 238.52514855563641 557.12079508602619 1078.2461622208357 104.03963261842728 260.9785989522934 138.34608818590641 276.06333111226559 508.78227746486664 93.691294252872467 155.99883376061916 863.46802058815956 28.269183754920959 140.40299189090729 465.22496511042118 120.42300271987915 265.04293049871922 95.030963227152824 607.02859012782574 998.59060917794704 52.160093784332275 245.16689279675484 351.12298929691315 114.55401395261288
leaf_count=114 617 87 77 13500 13551 6922 5349 964 1678 158104 5059 2421 1303 781 4006 483 1469 2454 530 723 713 2911 19987 1749 496 310 3204 253 1739 24717 1710 808 463 18543 48070 10747 1100 5017 5937 963 2253 4373 420 1061 556 1114 2045 378 626 3472 114 569 1887 491 1062 388 2445 4044 209 992 1410 462
internal_value=3.77431e-06 -0.0575444 -0.043704 -0.03563 -0.0250112 -0.0134898 0.0157952 -0.0316405 -0.0086188 0.0857763 -0.0178742 -0.00183278 -0.0111985 -0.0640497 0.0112842 -0.0525655 -0.0209199 -0.0752041 -0.000727574 -0.0354167 0.018262 -0.0234196 -0.0713792 -0.0112796 4.38551e-05 -0.0768478 -0.0318313 -0.0161813 -0.00678488 -0.0793924 0.000471024 -0.00840674 0.00444061 -0.0773779 -0.0751263 -0.0674993 -0.0679631 -0.0619521 -0.0556511 -0.0203086 -0.0609955 -0.0497537 -0.0212597 -0.0480336 -0.00860208 -0.0213256 -0.00882914 0.00793364 -0.0216122 0.00116064 -0.0648554 -0.0158137 -0.0634071 -0.0376256 -0.0123459 0.00864592 -0.0395118 -0.0721345 -0.0560649 -0.0207139 -0.0249049 -0.00808982
internal_weight=98366.8 58869.1 33003.8 26915 19594.2 16266.1 6223.92 10042.2 4781.73 39497.7 4369.37 3116.12 4527.27 7320.82 2347.68 5260.47 1342.52 25865.3 2028.45 2179.59 755.242 2520.49 6248.65 1797.98 1363.55 24389.5 1223.23 859.143 1898.54 6088.82 603.549 852.903 673.851 24157.5 19604.5 7790.37 7768.71 5119.22 3883.78 510.338 3373.45 1908.08 661.16 1475.85 1241.83 1072.17 796.105 602.474 231.977 1001.81 1246.92 168.672 3917.95 585.648 560.46 360.074 1214.87 6220.27 1295.92 297.327 899.395 548.272
internal_count=400000 238856 133767 108973 79309 65758 25165 40593 19306 161144 17628 12569 18243 29664 9450 21287 5409 105089 8147 8793 3040 10148 25346 7237 5488 99129 4926 3457 7617 24794 2423 3444 2721 98193 79650 31580 31493 20746 15729 2063 13666 7729 2673 5960 4992 4318 3204 2423 936 4028 5056 683 15878 2378 2258 1450 4899 25232 5245 1201 3611 2201
is_linear=0
shrinkage=0.05


Tree=4
num_leaves=63
num_cat=0
split_feature=29 8 43 25 6 40 36 29 40 32 31 5 1 42 31 6 31 36 5 6 37 32 15 40 1 42 31 4 0 5 31 37 39 40 39 39 6 5 5 31 39 5 4 4 0 43 39 5 1 1 39 5 1 37 5 23 32 31 5 6 32 32
split_gain=179667 4713.2 3187.55 2426.03 1548.57 1379.5 2138.4 1273.7 1122.81 1066.27 768.403 751.763 629.274 601.277 745.948 729.364 639.469 496.061 475.348 466.417 435.233 423.905 377.448 320.941 363.993 317.88 399.002 314.703 313.85 287.58 285.771 258.225 351.381 255.049 249.811 426.711 248.405 247.596 230.593 226.19 224.773 319.592 269.983 217.821 201.604 195.977 193.842 210.738 235.931 187.736 185.39 184.159 181.448 179.241 178.141 175.536 175.372 206.65 174.658 173.734 173.327 167.968
threshold=-0.11833484070553114 1.0000000180025095e-35 1.0000000180025095e-35 1.0000000180025095e-35 1.0000000180025095e-35 18.500000000000004 0.66725082794757251 1.6705863783180537 45.500000000000007 1.4806249160934006 1.0368739907062032 0.12299660711730062 -1.1668248812846918 1.0000000180025095e-35 0.53753850377635526 5.5000000000000009 -0.56064484623952304 0.66725082794757251 -1.3365440024447948 7.5000000000000009 12.500000000000002 -0.95182067536790982 1.0000000180025095e-35 36.500000000000007 0.53740718699831336 1.0000000180025095e-35 -0.93111787081281239 -0.76602852680812017 98.500000000000014 0.48070609988679464 -0.56064484623952304 6.5000000000000009 0.52338764249520264 2.5000000000000004 0.52338764249520264 -0.037876797236951275 7.5000000000000009 -1.0700137819885309 1.5532174099746097 0.95711533553297135 1.4362430625563103 0.2125235728829977 0.83184951233586046 0.66263071502385307 21.500000000000004 1.0000000180025095e-35 -1.2175425603956282 0.65927353957575063 -0.94924693498159363 0.73682046937182577 1.0195384087421144 1.6069590567346903 0.53740718699831336 11.500000000000002 -1.3367661918606084 1.0000000180025095e-35 -0.52957279914125599 0.033990203173779869 -1.4255916115863625 7.5000000000000009 -0.68609407802117917 1.5194786087721646
decision_type=2 2 2 2 2 2 2 2 2 2 2 2 2 2 2 2 2 2 2 2 2 2 2 2 2 2 2 2 2 2 2 2 2 2 2 2 2 2 2 2 2 2 2 2 2 2 2 2 2 2 2 2 2 2 2 2 2 2 2 2 2 2
left_child=1 2 4 7 -1 6 9 -2 17 10 13 18 25 14 15 16 -6 23 50 -17 -13 -9 31 40 58 30 -27 55 59 33 -8 32 -3 -14 35 49 39 -20 -34 -28 41 -7 52 -42 -39 -23 47 48 -24 -26 54 -40 -43 -51 -10 -22 -18 -58 -25 -15 -12 -46
right_child=3 22 -4 -5 5 8 12 21 11 -11 60 20 29 28 -16 19 56 -19 37 -21 27 45 46 24 34 26 36 -29 -30 -31 -32 -33 38 -35 -36 -37 -38 44 51 -41 43 42 -44 -45 61 -47 -48 -49 -50 53 -52 -53 -54 -55 -56 -57 57 -59 -60 -61 -62 -63
leaf_value=0.090712658648015546 0.088477957434823867 0.099397583834443609 -0.081714662151064293 0.083943193865727572 0.087563037464894022 -0.080316033528084502 0.087427150984848129 0.035442808429934615 -0.023801919049843818 -0.081175236965679826 -0.061910439281031487 0.027911398162729185 -0.036514451582103223 0.034048389059532239 0.084967834908906928 0.092792639602746918 -0.056724352248399924 -0.079279699459156 0.092035939243423376 0.0011938091238426546 0.08997326334530574 -0.01194438750403626 -0.027544301744448049 -0.0041778023430825801 -0.019871162796799267 -0.081377675136140984 0.01389799496645165 -0.077969739258472073 -0.011018231343635134 0.013563738902781328 -0.054640680034738279 -0.077355853790510992 -0.068170711592986641 -0.075278372627891152 -0.084817151723966977 0.03558603469355047 -0.059666593459974653 0.025581614159635915 0.099764949740413375 -0.04448820415625232 0.027838417872635243 -0.045057882262992247 -0.080373824007426681 -0.087023999249095985 -0.0094627214789862295 -0.073918322171315817 -0.058899320464770845 -0.05154858681510547 0.090683368599992584 -0.029415197454153774 -0.088244804732437704 -0.034118274389749584 0.091630304404856158 -0.072576701103500979 -0.086975077189392985 -0.033040158356644929 -0.031316593871704733 0.089416023668925135 0.093671009867845642 -0.0066501176582455697 0.096592467178791108 -0.080042709599538228
leaf_weight=233.76181028783321 555.20506179332733 32.120864585042 4771.5574068129063 38199.236072301865 100.07284922897816 1631.3887098282576 36.337233304977417 474.10499300062656 722.68516120314598 469.00288258492947 580.74836234748363 133.75713419914246 518.39559577405453 1851.7008811980486 184.51639294624329 167.28959840536118 989.05962017178535 2366.1602784693241 67.091478005051613 819.3855467736721 32.8582953363657 654.16733393073082 97.035055011510849 222.24909210205078 481.52866624295712 203.58805277943611 890.72091580927372 1139.7537196725607 664.02020059525967 111.29612950980663 1224.8025605082512 18129.624749109149 5563.3356630504131 2359.8567320406437 329.63762989640236 179.75545285642147 184.56730864942074 418.26139815151691 29.418401271104813 203.72310048341751 133.40854553878307 2039.2233005911112 651.33721676468849 59.633741185069084 1589.4323497265577 158.47806853055954 1052.806611225009 202.02131918072701 74.468923464417458 369.95032002031803 189.64995729923248 197.2253877222538 24.458093419671059 691.16720823943615 132.02585744857788 240.70297209918499 914.92699764668941 36.756352171301842 57.251269564032555 305.2109804302454 17.665200367569923 88.949521124362946
leaf_count=956 2271 129 19698 158103 413 6671 150 1910 2949 1935 2381 547 2117 7530 763 680 4037 9680 274 3326 134 2629 391 909 1969 840 3618 4648 2694 455 5015 74623 22795 9638 1348 735 748 1707 118 831 544 8336 2664 244 6486 645 4283 819 299 1513 773 801 100 2827 539 981 3724 151 234 1236 71 365
internal_value=6.57175e-06 -0.0568496 -0.0440346 0.0812406 -0.0373898 -0.0385066 -0.0266662 0.025188 -0.049366 -0.00832507 -0.00317083 -0.0296221 -0.0493793 0.00218917 -0.0126025 -0.0185534 -0.0356178 -0.0595289 -0.0158134 0.0167372 -0.0582506 -0.00212106 -0.0729228 -0.0527255 -0.0376385 -0.0320828 -0.0163797 -0.06641 0.0190331 -0.0652503 -0.0505367 -0.0744114 -0.0652405 -0.0682999 -0.04493 -0.0372889 -0.00602416 -0.00243904 -0.0661564 0.00302217 -0.0604723 -0.0628172 -0.0522982 -0.00764515 -0.00546882 -0.024044 -0.0479188 -0.0169486 0.0237853 -0.0457856 -0.0435151 -0.0166818 -0.0434311 -0.0575377 -0.0335751 -0.0182189 -0.0419763 -0.0266394 0.0158734 0.028287 -0.0572077 -0.0132108
internal_weight=97250.5 57209.3 31831.3 40041.2 27059.7 26826 12833.6 1841.96 13992.3 7100.36 6631.35 4755.17 5733.29 6032.94 3212.01 3027.49 2040.82 9237.15 3208.1 986.675 1547.07 1286.75 25378.1 6870.99 2331.54 2743.74 1482.6 1413.31 2820.93 2989.55 1261.14 23951.7 5822.1 2878.25 2052.04 1722.4 1279.01 2163.73 5789.98 1094.44 4539.45 4346.41 2715.02 193.042 2096.64 812.645 1426.33 373.525 171.504 1542.65 1044.36 226.644 2063.68 1061.12 854.711 273.561 1940.74 951.683 279.5 2156.91 598.414 1678.38
internal_count=400000 234442 130184 165558 110486 109530 52353 7455 57177 28941 27006 19403 23412 24554 13094 12331 8325 37774 13093 4006 6310 5184 104258 28094 9535 11202 6037 5763 11460 12210 5165 98466 23843 11755 8392 7044 5197 8832 23714 4449 18559 17771 11100 788 8558 3274 5792 1509 690 6309 4261 919 8436 4340 3488 1115 7912 3875 1143 8766 2452 6851
is_linear=0
shrinkage=0.05


Tree=5
num_leaves=63
num_cat=0
split_feature=29 43 41 35 33 4 32 32 32 28 29 33 33 32 33 32 32 32 31 32 35 40 38 31 33 32 33 33 32 13 33 39 3 15 0 0 0 0 0 0 0 5 0 38 3 1 33 32 32 32 32 33 0 40 3 1 31 36 5 5 42 40
split_gain=164566 2683.45 2846.12 2519.14 2161.73 1730.53 1385.04 2907.24 3232.11 1080.77 943.711 920.695 1077.68 1209.48 633.021 604.884 599.998 596.27 575.7 1764.44 460.712 609.59 456.909 408.495 483.902 449.284 553.2 333.36 328.347 318.954 260.4 256.651 438.67 218.421 214.317 210.854 197.068 246.519 207.187 256.268 286.15 196.177 194.546 193.826 221.488 193.619 192.769 187.907 171.323 169.857 276.009 353.89 159.992 158.932 213.541 194.1 187.421 158.013 183.79 189.87 155.217 142.465
threshold=-0.11833484070553114 1.0000000180025095e-35 1.0000000180025095e-35 1.1383890329845141 -0.86373157474397666 0.41839252795375537 1.4806249160934006 -0.68609407802117917 1.2051298653500573 -0.10535109030884564 1.6705863783180537 1.0435690164297053 -0.071643977033698972 -1.1395808022537424 -0.590207097597087 1.4806249160934006 1.3864975518441462 -0.75891378398989173 0.95711533553297135 -1.2368401738956016 -1.3024626453691577 28.500000000000004 -1.3409674744988849 1.0368739907062032 -0.86373157474397666 -0.82764979472324518 -0.071643977033698972 -0.42901226199250214 1.2051298653500573 1.0000000180025095e-35 1.2139160988531914 0.53137777019322463 1.2999587982311762 1.0000000180025095e-35 15.500000000000002 13.500000000000002 11.500000000000002 8.5000000000000018 55.500000000000007 92.500000000000014 79.500000000000014 0.59982547439760736 98.500000000000014 -0.536583685243326 1.1351933392536344 -1.2211269916916934 -0.80222329886253119 -1.2001143642932928 -0.75891378398989173 0.56238509073767762 -0.36074878382608405 -1.1194574354933067 57.500000000000007 46.500000000000007 -0.77272911212497619 -1.4206354837646185 0.53753850377635526 -1.4401891104067988 0.89767520107126464 1.1955667939531844 1.0000000180025095e-35 11.500000000000002
decision_type=2 2 2 2 2 2 2 2 2 2 2 2 2 2 2 2 2 2 2 2 2 2 2 2 2 2 2 2 2 2 2 2 2 2 2 2 2 2 2 2 2 2 2 2 2 2 2 2 2 2 2 2 2 2 2 2 2 2 2 2 2 2
left_child=1 2 3 4 -1 6 7 11 -9 10 -2 12 17 18 41 23 -16 35 19 42 22 31 -7 24 49 26 -26 36 46 33 -12 57 34 53 -33 -6 37 -18 -38 40 52 -10 -14 -24 -45 -31 48 -28 -27 50 -5 61 -40 -4 55 -55 -56 -22 -59 -60 -8 -52
right_child=9 -3 29 15 5 20 60 8 14 -11 30 -13 13 -15 16 -17 27 -19 -20 -21 21 -23 43 -25 25 28 47 -29 -30 45 -32 32 -34 -35 -36 -37 38 -39 39 -41 -42 -43 -44 44 -46 -47 -48 -49 -50 -51 51 -53 -54 54 56 -57 -58 58 59 -61 -62 -63
leaf_value=-0.069046365098127255 0.086220791810963954 -0.079222893414754331 -0.076825739691422937 -0.048917051896636532 -0.022427750535296442 0.030238437334089631 0.099602510365136301 0.085670171385960434 -0.046286317994039261 0.07989199180581702 0.0086819730093645985 -0.074552261816947463 -0.019064581763401273 0.087666056023148753 0.084173728837840772 -0.078721563447240461 -0.036549940454344933 0.087149889122692531 -0.053676786079493069 0.087308779490473082 -0.084766131412016457 -0.081918414512063609 -0.076577078341545549 -0.051694036921282972 -0.041560730611020287 -0.021925749813256065 0.013631629179152517 0.084237073838417983 0.014848412320080846 -0.082087742836751632 -0.065745475528018876 0.04047979020753259 -0.082624958129532258 -0.049633051680872398 -0.024681378775238825 -0.057916227054209304 -0.052627220522758034 0.076523389967082328 0.057869650193301925 -0.035379397508440651 0.052550212471569047 -0.0047218485556538908 -0.057010965993422605 -0.017329376752043522 -0.060373029474090595 0.02770326658538623 0.086736258914709541 0.084793028034099105 0.084379295749778871 -0.055421184269030956 0.0063895097569597646 0.091731879722243559 -0.04598637810245939 0.0023966704065546407 -0.053069033539573457 -0.077286001927828391 0.018400751481524407 -0.062976650633632031 0.10378278409877897 -0.030154385019364561 -0.073276075978085151 -0.062320354311241437
leaf_weight=8581.7042844444513 434.29928703606129 9249.9634881019592 9067.7269264757633 311.19118314981461 477.03756494820118 219.98842181265354 12.975308045744894 1041.2753097862005 1291.4676702469587 38302.288058802485 493.44907677173615 1648.1382260322571 1366.6356215029955 275.4836737960577 215.05119378864765 271.86260385811329 76.860959455370903 76.591540426015854 968.42593349516392 401.9394361525774 524.68341575562954 2962.0005239546299 403.40862181782722 369.52831047773361 569.3827291727066 94.409707233309746 559.37921136617661 97.920068964362144 699.27401474118233 58.184237420558929 154.12403380870819 153.70012199878693 307.19272992014885 977.25187319517136 701.95400282740593 3452.428407728672 328.45109651982784 128.77016472816467 46.912421315908432 411.64024317264557 270.81853646039963 364.24812902510166 448.99518215656281 670.58849705755711 539.85803972184658 128.95766928792 371.30093288421631 111.19642886519432 63.135866239666939 305.78774896264076 305.94753821194172 106.74609984457493 175.09421126544476 82.942201673984528 260.84680895507336 953.98876352608204 141.2621808797121 825.85168369114399 29.690319404006004 236.04238328337669 1724.135862916708 99.986264199018478
leaf_count=35544 1793 38696 37911 1267 1953 901 52 4305 5268 161143 1986 6851 5540 1135 892 1138 310 315 3962 1655 2171 12331 1666 1528 2331 384 2270 406 2839 244 636 627 1278 4005 2886 14204 1326 519 189 1661 1091 1484 1826 2754 2227 517 1537 463 262 1245 1226 434 707 346 1089 3979 583 3425 121 975 7182 409
internal_value=9.57148e-06 -0.054589 -0.0497782 -0.0427697 -0.0476456 -0.0396169 -0.0299399 -0.0245556 0.00857935 0.0784999 0.0292056 -0.0407262 -0.033259 -0.0128225 -0.0149805 -0.00658491 0.00597087 -0.0509153 -0.0215155 -0.0074664 -0.0591628 -0.0661334 -0.0373353 -0.00163853 0.00350264 0.0159096 -0.00531777 -0.00497628 0.0373444 -0.0712135 -0.00903164 -0.0493055 -0.0313788 -0.0722687 -0.0129674 -0.0536099 -0.0110578 0.0342372 -0.0186186 -0.00625853 0.0180572 -0.0371462 -0.0284539 -0.0465509 -0.0365343 -0.00643073 0.0670721 0.0254501 0.0206704 -0.0235987 -0.0117761 0.0107634 -0.0240018 -0.0743731 -0.0589107 -0.0709079 -0.0279507 -0.0621972 -0.0513378 -0.0151374 -0.0719762 -0.0105334
internal_weight=96002.4 56618.2 47368.2 35697.1 31458 22876.3 15301.3 13564.2 4448.51 39384.2 1081.87 9115.68 7467.54 3461.48 3407.23 4239.13 1751.52 4006.06 3186 2217.57 7574.96 5741.12 1833.84 3967.27 3597.74 2468.08 1239.96 1536.47 1228.12 11671.2 647.573 2779.11 1162.85 11484 855.654 3929.47 1438.55 205.631 1232.92 904.465 492.825 1655.72 1815.63 1613.86 1210.45 187.142 528.847 670.576 157.546 1129.66 823.871 512.68 222.007 10506.8 1439.04 1036.93 402.109 1616.27 1091.58 265.733 1737.11 405.934
internal_count=400000 234442 195746 147072 129739 94195 62833 55599 18158 165558 4415 37441 30590 14118 13853 17333 7101 16472 12983 9021 31362 23814 7548 16195 14667 10086 5064 6209 5022 48674 2622 11483 4791 47913 3513 16157 5803 829 4974 3648 1987 6752 7366 6647 4981 761 2183 2733 646 4581 3336 2069 896 43908 5997 4325 1672 6692 4521 1096 7234 1635
is_linear=0
shrinkage=0.05


Tree=6
num_leaves=63
num_cat=0
split_feature=29 8 43 33 25 32 32 32 33 33 32 29 33 31 32 32 32 35 6 6 33 33 15 0 35 35 31 32 6 33 13 32 31 31 33 0 39 39 1 31 32 31 32 0 0 0 36 1 34 32 1 41 0 2 35 33 33 33 32 3 33 33
split_gain=151111 4125.87 2790.24 2363.5 2245.8 1979.31 3999.57 3756.66 1144.26 1284.16 1458.88 1125.98 788.63 769.998 1947.27 745.059 705.293 670.419 586.41 547.645 389.308 352.564 344.91 326.622 313.283 309.166 282.27 264.945 264.679 259.972 245.14 190.56 1050.77 187.172 332.796 182.638 171.668 185.483 211.334 166.795 166.396 157.311 286.399 152.02 150.029 326.29 149.085 142.936 133.245 202.451 130.715 140.584 125.897 125.42 119.894 119.823 1031.48 117.69 1298.11 116.831 115.504 693.461
threshold=-0.11833484070553114 1.0000000180025095e-35 1.0000000180025095e-35 -0.86373157474397666 1.0000000180025095e-35 1.4806249160934006 -0.68609407802117917 1.2051298653500573 1.0435690164297053 -0.071643977033698972 -1.1395808022537424 1.6705863783180537 -0.590207097597087 0.95711533553297135 -1.2368401738956016 -0.75891378398989173 1.3864975518441462 1.1383890329845141 5.5000000000000009 7.5000000000000009 1.2139160988531914 -0.42901226199250214 1.0000000180025095e-35 98.500000000000014 0.635462930607406 0.6288988138735937 -0.21776266376853792 -0.95176008858387728 1.0000000180025095e-35 -0.66516618960493001 1.0000000180025095e-35 1.3865060678522221 -0.88914347561786611 -0.80523069200043607 -0.66516618960493001 13.500000000000002 -1.2175425603956282 -1.3882024964427326 -0.94924693498159363 0.11788385989475093 1.0000000180025095e-35 -0.76325898704989914 1.207535932271578 1.5000000000000002 117.50000000000001 114.50000000000001 1.2093051794000969 -1.2211269916916934 10.500000000000002 1.5194786087721646 1.4425598099202517 1.0000000180025095e-35 17.500000000000004 -0.20374397610640785 1.1407180289305121 -1.0571427621094112 -0.97301443200195148 -0.42901226199250214 -1.1395808022537424 -0.59571895100732786 -0.97140837452351914 -0.92023459640463334
decision_type=2 2 2 2 2 2 2 2 2 2 2 2 2 2 2 2 2 2 2 2 2 2 2 2 2 2 2 2 2 2 2 2 2 2 2 2 2 2 2 2 2 2 2 2 2 2 2 2 2 2 2 2 2 2 2 2 2 2 2 2 2 2
left_child=1 2 3 17 11 6 8 -8 9 15 13 -2 24 14 23 18 -14 28 43 -20 26 31 30 25 -9 46 -13 -21 -1 54 35 -18 -33 -26 41 40 37 -24 -39 47 50 -35 -43 -5 45 53 -11 -32 -7 52 51 -3 -50 -19 -29 -30 -57 -45 -59 -55 -58 -62
right_child=4 22 -4 5 -6 48 7 12 -10 10 -12 20 16 -15 -16 -17 21 44 19 27 -22 -23 36 -25 33 -27 -28 29 55 -31 39 32 -34 34 -36 -37 -38 38 -40 -41 -42 42 -44 57 -46 -47 -48 -49 49 -51 -52 -53 -54 59 -56 56 60 58 -60 -61 61 -63
leaf_value=0.08893360763488356 0.082391093778613686 -0.017714118981587479 -0.076392988314466337 0.0081839101052753657 0.078705805179334148 -0.077297632428215801 0.082421431614632723 -0.046673414222589256 -0.07076645108551112 -0.039105199966174307 0.083248774840837425 -0.035783582916083127 0.082064266429322963 -0.052390456620594522 0.083459241478927845 0.083108023738105483 -0.024720450201064378 -0.031277810867246264 0.087724167203837661 -0.052764742265913482 -0.057996323238044517 0.081999622676318898 -0.047229780830563381 -0.056568939247916443 -0.053241459665288982 0.011560341030523119 0.025345068770021024 -0.029376587029600422 -0.073003888183996876 0.092771755878808149 -0.076439811107339356 -0.021097623095215401 0.08893247339826521 -0.046850206446798819 0.083818476008811524 -0.071311944561397417 -0.054209762215772041 -0.024979095742916405 0.087265191008090298 -0.079132247900979891 -0.071851077830220281 -0.017940057554848576 0.083859311971447387 -0.066802145333549764 -0.071893407346561231 0.077873744337710785 0.0099919703260201772 0.040664963171439479 0.074185469170161875 -0.06964855146253085 -0.077681618509462022 -0.053510721554261391 -0.027725593305778107 0.093761438620739837 0.033290688864965667 0.11885496867589203 -0.078088295442911709 -0.068836953466385339 0.096081723842060873 -0.023618162985743683 0.11909800451200325 -0.06218087580579032
leaf_weight=27.363079264760017 538.6176410317421 486.83554680645466 4609.425989985466 80.663100525736809 36832.753990843892 1681.5395940393209 1483.4051121473312 1300.6692331284285 2056.8410334587097 885.22567068040371 382.25081491470337 250.61160451173782 302.05145853757858 1208.4776689708233 513.22571188211441 107.85533393919468 754.0352938324213 699.17719945311546 107.36384227871895 614.26448728144169 262.97208526730537 123.19428744912148 199.37884752452374 579.01515717804432 176.97015418112278 734.98809224367142 764.85230113565922 388.90884327888489 3267.7653282284737 60.499614924192429 33.688514590263367 826.3128270804882 294.12719470262527 198.4428886026144 110.46694761514664 20637.840269595385 1034.6911278963089 96.366424858570099 74.039658412337303 71.627222001552582 1038.8910528868437 264.39224073290825 93.406522929668427 2611.7649922072887 129.08179773390293 86.645863935351372 187.10618267953396 113.61993582546711 41.900248348712921 319.77235507965088 254.08607846498489 630.07695165276527 108.72363196313381 40.914226740598679 94.796473756432533 79.289514377713203 938.78439067304134 893.63035823404789 137.59249651432037 43.709001794457436 54.544199109077454 1519.9559663832188
leaf_count=111 2271 2011 19698 327 158103 7147 6237 5342 8679 3611 1605 1008 1270 4980 2147 451 3044 2847 440 2527 1080 518 819 2367 722 2970 3096 1585 13717 244 144 3328 1197 807 459 87406 4283 391 299 298 4394 1062 388 10883 529 351 757 456 170 1347 1082 2675 452 166 380 327 3937 3731 561 178 225 6363
internal_value=1.23975e-05 -0.0525538 -0.040477 -0.0342554 0.0760287 -0.0254495 -0.019906 0.0135275 -0.0369253 -0.0296641 -0.0101658 0.0217592 -0.0094691 -0.018861 -0.00488352 -0.0468389 0.010868 -0.0594727 -0.0496505 -0.020243 -0.00378621 9.68715e-05 -0.0678362 -0.0238881 -0.0312815 -0.0134127 0.0102519 -0.0302601 -0.0659006 -0.00484407 -0.0692892 -0.00528736 0.00778732 -0.00754381 0.00458477 -0.0697895 -0.0437584 -0.0144942 0.0237831 -0.0165923 -0.0567472 -0.0111539 0.0086376 -0.0596453 -0.0216011 -0.0141299 -0.0305337 0.0138162 -0.0707106 -0.0471418 -0.0452939 -0.0379153 0.000621059 -0.0243156 -0.0170804 -0.0666259 -0.0585825 -0.0611487 -0.0468204 0.033118 -0.0641869 -0.0558906
internal_weight=94541.5 55891.7 31220.5 26611.1 38649.8 19723.9 17571.9 5927.47 11644.5 9587.63 4490.29 1817.05 4444.07 4108.04 2899.56 5097.34 2299.72 6887.23 4989.48 1265.83 1278.44 1997.67 24671.1 2386.34 2144.35 1807.32 1015.46 1158.47 5887.7 544.205 23266.7 1874.48 1120.44 843.679 666.709 23047.7 1404.48 369.785 170.406 218.936 2409.89 556.242 357.799 3723.65 999.528 870.446 1072.33 147.308 2151.94 470.396 1371 1116.91 150.624 783.8 483.705 5860.34 2592.57 3642.99 1031.22 84.6232 2513.28 1574.5
internal_count=400000 234442 130184 110486 165558 81735 72619 24374 48245 39566 18437 7455 18137 16832 11852 21129 9357 28751 20678 5176 5184 8087 104258 9705 8780 7338 4104 4736 24680 2209 98466 7569 4525 3438 2716 97568 5792 1509 690 898 10162 2257 1450 15502 4071 3542 4368 600 9116 1969 5768 4686 622 3191 1965 24569 10852 15175 4292 344 10525 6588
is_linear=0
shrinkage=0.05


Tree=7
num_leaves=63
num_cat=0
split_feature=25 8 43 33 32 32 32 33 33 32 31 32 32 15 33 32 15 28 33 32 33 33 31 35 37 39 32 31 33 32 32 39 32 31 39 31 33 32 31 42 13 41 33 33 33 33 32 32 33 1 43 7 1 3 4 4 40 3 1 31 31 31
split_gain=137653 4462.87 3075.34 2398.04 2100.17 3290.83 3556.8 1343.42 1380.94 1372.49 831.063 1864.7 729.573 707.098 702.769 664.684 386.503 338.447 328.05 320.033 1656.17 296.007 590.507 294.918 235.886 318.801 227.288 803.634 216.709 1739.36 190.726 188.068 185.854 993.8 178.015 177.771 307.956 177.153 963.945 174.143 168.41 172.648 163.728 1273.53 174.021 831.732 157.527 188.057 168.603 147.833 145.885 158.055 173.133 228.19 192.562 231.497 145.523 353.351 273.081 218.618 140.135 140.007
threshold=1.0000000180025095e-35 1.0000000180025095e-35 1.0000000180025095e-35 -0.86373157474397666 1.4806249160934006 -0.68609407802117917 1.2051298653500573 1.0435690164297053 -0.071643977033698972 -1.1395808022537424 0.95711533553297135 -1.2368401738956016 -0.75891378398989173 1.0000000180025095e-35 -0.590207097597087 1.3864975518441462 1.0000000180025095e-35 -0.10143336200641027 -0.42901226199250214 -0.95176008858387728 -0.66516618960493001 0.50524072001091225 0.78927634707079941 0.635462930607406 6.5000000000000009 0.52338764249520264 -1.2491497276370722 0.705376699830215 -0.42901226199250214 -1.1395808022537424 1.271441501870145 -1.2175425603956282 -0.82764979472324518 0.2437896168960553 -1.3882024964427326 -0.80523069200043607 -0.66516618960493001 1.3865060678522221 -0.88914347561786611 1.0000000180025095e-35 1.0000000180025095e-35 1.0000000180025095e-35 -1.0571427621094112 -0.97301443200195148 -0.97140837452351914 -0.92023459640463334 0.56238509073767762 -0.52957279914125599 -1.0571427621094112 -1.2211269916916934 1.0000000180025095e-35 1.0000000180025095e-35 1.2624439612564091 0.72431958875946678 -1.0291866621925647 -1.1231051942927572 46.500000000000007 -0.78920468318955173 -0.37640539257684652 -0.38557520473246681 1.1207562361901726 -0.76325898704989914
decision_type=2 2 2 2 2 2 2 2 2 2 2 2 2 2 2 2 2 2 2 2 2 2 2 2 2 2 2 2 2 2 2 2 2 2 2 2 2 2 2 2 2 2 2 2 2 2 2 2 2 2 2 2 2 2 2 2 2 2 2 2 2 2
left_child=1 2 3 13 5 7 -7 8 12 10 11 21 19 42 23 -16 17 24 37 28 32 22 26 -8 25 -3 -10 -28 -5 -30 31 34 -21 -34 -18 -25 61 -17 -39 -6 41 50 -1 -44 -45 -46 47 -15 -49 -42 51 52 53 54 55 -27 -26 -58 59 -59 -61 -37
right_child=-2 16 -4 4 39 6 14 -9 9 -11 -12 -13 -14 46 15 18 30 -19 -20 20 -22 -23 -24 35 56 40 27 -29 29 -31 -32 -33 33 -35 -36 36 -38 38 -40 -41 49 -43 43 44 45 -47 -48 48 -50 -51 -52 -53 -54 -55 -56 -57 57 58 -60 60 -62 -63
leaf_value=-0.067364322127195245 0.076475020921304204 0.097732282805320342 -0.073972890618978576 -0.066119221711161663 0.097461404564667189 0.079898415846252319 -0.043354100922658442 -0.066452351055506162 -0.037034241693237741 0.080757586040072923 -0.046307496238334259 0.080655573012756054 0.080806210758723268 -0.051944792120715892 0.079491668670990806 -0.023252765405627013 -0.036077922861401344 0.011716435447269746 0.079522725352017723 -0.056846975153973814 0.094543814202946053 -0.046085929958882291 0.086685122334373199 -0.050433195018825816 -0.071249038299167247 -0.028257822524315648 -0.021837922037553019 0.089729558587404057 -0.063228019809007038 0.091496653422526039 -0.07907026272877532 -0.043522466397269768 -0.050331083213505934 0.10662526153741569 0.036502155384073129 -0.042270822565539629 0.081060500835895416 -0.019562236134037729 0.085549202639455646 -0.069483870634515277 -0.075968850449159769 -0.071935945340993054 0.10476556327317979 -0.075071052589130549 0.10682959133351605 -0.056583349690346708 -0.050709484642279729 0.0050394180289163662 0.088346671997549142 0.011044278970321878 -0.076695121762027363 -0.073703211263275142 -0.066388967565775267 -0.0087325407895567989 -0.059153426956472965 0.1120724818236057 -0.069812480344750391 -0.069639293132023994 -0.059012519020610422 0.04033762684758508 -0.068873058499984957 0.0093210486220291471
leaf_weight=3565.0292869061232 36032.361466884613 32.722297534346581 4614.9807508140802 1651.6239247769117 15.629296064376829 1546.8673513829708 1312.0629737824202 2150.6727663725615 714.27417171001434 437.41865119338036 1265.8510117083788 603.8676992058754 120.77904714643955 120.81653712689877 308.35386556386948 756.05033402144909 167.8561760187149 138.98519816994667 123.60987184941769 1157.5264838188887 241.94487880170345 652.37379039824009 154.25537759065628 176.56428928673267 14926.649031296372 240.20722307264805 839.94094669818878 199.69614544510841 1174.638007491827 214.7479413151741 252.14521493017673 871.1643573641777 618.10597234964371 120.40007960796356 169.87884047627449 204.41437518596649 113.37861351668835 830.57918344438076 295.67284439504147 2108.1962539702654 71.008420526981354 2005.6057551503181 124.93695658445358 995.64649410545826 81.692059263586998 1618.2318167537451 174.05422151088715 386.53992736339569 71.996845573186874 155.40836285054684 561.5479074716568 518.96081663668156 594.21913506090641 556.49690727889538 877.96756146848202 33.377341464161873 1776.1555021703243 76.819207280874252 339.77177555859089 227.69923107326031 33.600326016545296 367.99639703333378
leaf_count=15157 158104 132 20118 6956 63 6634 5430 9202 2914 1870 5261 2577 514 496 1323 3058 690 572 530 4842 993 2676 639 726 64562 1008 3415 819 4954 887 1073 3623 2583 493 690 836 480 3350 1220 9097 310 8650 509 4240 333 6855 713 1559 298 626 2415 2206 2545 2314 3712 136 7636 330 1451 952 144 1499
internal_value=1.60073e-05 -0.0484366 -0.0361912 -0.0298771 -0.021177 -0.0157295 0.0145163 -0.0305495 -0.0229541 -0.00372546 -0.0120696 0.00162597 -0.0406136 -0.0548311 -0.0080155 0.0111598 -0.0644619 -0.0660353 0.000649721 -0.0434477 -0.028617 -0.0170125 -0.00706826 -0.028426 -0.0665048 -0.0576185 -0.0153211 -0.000396378 -0.0538715 -0.0393048 -0.0395064 -0.0312444 -0.0443398 -0.0247244 0.000414652 -0.00570472 0.00580952 -0.00453112 0.00803318 -0.0682484 -0.0585264 -0.0603019 -0.0602364 -0.051223 -0.0584584 -0.0487216 -0.00901026 0.00351533 0.0181472 -0.016244 -0.0534008 -0.0487598 -0.0431322 -0.0350349 -0.0477396 -0.0110845 -0.0693916 -0.0580896 -0.0273609 0.00443866 0.0262542 -0.00909843
internal_weight=92892 56859.7 32231.4 27616.4 20477.5 18353.7 6035.55 12318.1 10167.4 4867.68 4430.26 3164.41 5299.77 7138.94 4488.68 2314.27 24628.2 23167.2 2005.91 5178.99 2137.98 2560.54 1908.17 2174.42 23028.2 5647.52 1753.91 1039.64 3041.01 1389.39 1461.04 1208.9 1896.03 738.506 337.735 862.354 685.789 1882.3 1126.25 2123.83 5614.8 5388.38 6385.54 2820.51 2695.57 1699.92 753.408 579.353 458.537 226.417 3382.78 2821.23 2302.27 1708.05 1151.55 273.585 17380.7 2454.05 677.891 338.119 261.3 572.411
internal_count=400000 241896 136119 116001 85841 76681 25086 51595 42393 20171 18301 13040 22222 30160 18452 9481 105777 99701 8158 21708 8911 10463 7787 8971 99129 24054 7148 4234 12797 5841 6076 5003 7918 3076 1380 3541 2815 7628 4570 9160 23922 22986 27094 11937 11428 7188 3066 2353 1857 936 14336 11921 9715 7170 4856 1144 75075 10513 2877 1426 1096 2335
is_linear=0
shrinkage=0.05


Tree=8
num_leaves=63
num_cat=0
split_feature=29 8 31 31 35 4 42 31 31 28 29 6 6 6 0 36 38 6 40 15 37 3 40 37 37 39 40 35 0 38 5 0 0 32 38 6 32 32 40 5 36 4 5 0 0 4 0 6 4 6 39 40 3 4 1 35 0 0 38 5 5 6
split_gain=128536 3560.34 1992.41 2256.32 1545.62 962.501 908.691 1710.17 1302.18 865.198 748.719 668.968 917.391 625.099 551.809 344.076 368.624 343.961 339.557 313.027 304.06 349.11 305.494 252.66 231.384 286.954 223.163 222.873 218.33 197.273 196.858 184.478 190.378 181.521 172.763 168.139 157.574 172.695 156.785 179.013 151.817 173.039 147.228 145.125 278.334 142.365 140.719 139.671 147.161 135.755 194.956 180.051 168.502 155.605 140.68 146.136 135.395 370.75 129.498 127.183 123.847 123.817
threshold=-0.11833484070553114 1.0000000180025095e-35 -0.97306600356875894 1.1207562361901726 1.1383890329845141 0.39951252097468826 1.0000000180025095e-35 0.53753850377635526 -0.56064484623952304 -0.10535109030884564 1.6705863783180537 5.5000000000000009 7.5000000000000009 7.5000000000000009 98.500000000000014 0.66725082794757251 -1.3409674744988849 1.0000000180025095e-35 18.500000000000004 1.0000000180025095e-35 4.5000000000000009 -1.052428110255573 8.5000000000000018 28.500000000000004 6.5000000000000009 0.52338764249520264 18.500000000000004 1.3267203717475484 117.50000000000001 -1.2972350232290257 1.5532174099746097 54.500000000000007 47.500000000000007 -0.68940617798122916 0.81372831078893271 5.5000000000000009 1.271441501870145 -0.52957279914125599 3.5000000000000004 -0.94928311075194116 -1.4685162893939803 0.45597402325186842 0.33152097781540096 136.50000000000003 137.50000000000003 -0.54091641675270175 15.500000000000002 4.5000000000000009 0.54907109837092216 2.5000000000000004 -1.3299522049698826 45.500000000000007 0.54320361740136947 -0.032875315067366413 -0.47789749850708324 -0.39246624928251189 126.50000000000001 125.50000000000001 0.29723829452824041 -0.23433526726458079 0.59147319824391198 1.0000000180025095e-35
decision_type=2 2 2 2 2 2 2 2 2 2 2 2 2 2 2 2 2 2 2 2 2 2 2 2 2 2 2 2 2 2 2 2 2 2 2 2 2 2 2 2 2 2 2 2 2 2 2 2 2 2 2 2 2 2 2 2 2 2 2 2 2 2
left_child=1 2 -1 4 5 6 7 8 -4 10 -2 17 -13 14 20 16 -7 -10 29 24 58 45 38 42 25 -3 -24 -6 31 -18 -27 32 60 -12 -32 49 37 -21 39 -23 -20 -42 -14 56 -45 -22 -36 48 -43 50 -28 52 59 -51 55 -53 57 -16 -8 -52 -29 -5
right_child=9 19 3 61 27 15 13 -9 11 -11 33 12 23 -15 43 -17 18 -19 40 36 21 22 26 -25 -26 30 35 28 -30 -31 34 -33 -34 -35 46 -37 -38 -39 -40 -41 41 47 -44 44 -46 -47 -48 -49 -50 53 51 54 -54 -55 -56 -57 -58 -59 -60 -61 -62 -63
leaf_value=-0.07035733883845037 0.079584581148228861 0.093401315949925734 0.081532274293245319 0.09054273924845492 0.090048761511288378 0.016879224392477611 -0.039579883733205777 0.079685101495777871 0.083346240477851066 0.073205733624752078 0.023140019344854868 0.088048529172494769 -0.047956568148077534 -0.047369919841101504 -0.042258761293198187 -0.076809219444440927 -0.036951816683019965 -0.056440071023566844 -0.078816064452297135 -0.05235265542719602 0.025359280732527908 -0.067671755044028378 0.016897784382284269 0.035487913029264427 -0.067834289905193926 -0.058843919979377803 -0.076739386127860909 0.014472970427014058 -0.030211761543245189 0.089420614407067056 0.1039829615066606 0.018489618612170185 -0.074771421921456416 -0.030507265808078988 0.05821397831344937 0.090171582495974234 -0.077253261261197581 -0.013386025810506595 -0.080225871689564077 0.017957885167856721 0.093102611314140493 0.093417610440756818 -0.015499967783586957 0.059922485978635247 -0.03941298812153559 -0.039968156258069203 -0.048856751943080416 -0.067024582986916242 -0.041608230703461133 -0.05924506885168962 -0.07665058429162383 -0.062349939168179762 0.043479185096872194 -0.012019343979883607 0.057507542819705042 0.034207847529205825 -0.072011717290873564 0.061877698161614508 0.041136783055607251 -0.012094710688830333 -0.020182404126922435 -0.067860291972458062
leaf_weight=4044.4864623695612 413.85307316482067 31.832082688808441 204.91146290302277 12.266241997480391 75.078258872032166 225.74049632251263 54.292908072471619 296.55838495492935 44.261885315179825 35914.617096796632 282.94674479961395 175.84609350562096 1065.211618065834 1138.8708433508873 855.51649902760983 1148.853432700038 57.215352743864059 5306.6320313960314 483.70538853108883 561.22514110803604 1033.9172333180904 114.73286186158657 753.35123689472675 128.75527061522007 16926.781757891178 5253.2950100302696 85.658082246780396 565.29703545570374 430.16579741239548 66.797196552157402 28.486097261309624 1690.4981241822243 96.329438224434853 355.78313039243221 38.119390472769737 36.226630479097366 239.38644868135452 577.29030022025108 222.07631185650826 130.07241423428059 21.494171664118767 20.383287787437439 520.90375332534313 113.15710316598415 186.75409384071827 90.568945527076721 155.15149269998074 711.08469232916832 1301.0008717775345 339.46756686270237 120.8939963132143 66.637602001428604 83.792938888072968 359.44346944987774 193.99155655503273 94.781736299395561 269.92220644652843 94.831215187907219 570.1533649712801 207.28112472593784 473.72994075715542 3962.8077425658703
leaf_count=17968 1793 129 899 51 315 950 227 1288 188 161143 1146 738 4546 4758 3587 4959 242 22889 2090 2356 4317 480 3153 539 74623 22795 359 2366 1799 282 115 7057 400 1476 155 154 1042 2394 929 542 91 85 2200 474 780 378 649 3045 5546 1419 509 278 351 1505 815 395 1131 399 2382 870 1972 17487
internal_value=1.97886e-05 -0.0490416 -0.0376849 -0.0326604 -0.0264806 -0.0319896 -0.0261424 -0.0380393 -0.0427294 0.0718961 0.0272038 -0.0462473 -0.0206761 -0.0133762 -0.00700459 -0.0536583 -0.0444429 -0.0552813 -0.0496461 -0.0635145 0.00169602 -0.00344928 -0.0128766 -0.0318323 -0.0649358 -0.0560244 -0.00550961 0.00493333 0.00296648 0.0310934 -0.0568958 0.0080197 -0.00756543 -0.00673468 -0.0107173 -0.0161421 -0.0403678 -0.0326017 -0.0498041 -0.022165 -0.0535947 -0.0476492 -0.0373021 -0.0330898 -0.00190937 0.0200901 -0.0276938 -0.0491446 -0.0395147 -0.0186326 -0.00523897 0.00274465 -0.0197416 -0.0349697 0.0288215 -0.00563639 -0.0407482 -0.0318567 0.0341056 -0.0359073 -0.00132328 -0.067368
internal_weight=91125.2 54158 30346.4 26301.9 22326.8 18995.7 14959.5 7743.08 7446.52 36967.2 1052.58 7241.61 1890.72 7216.39 6077.52 4036.27 2887.42 5350.89 2661.68 23811.6 4557.34 3932.89 2808.41 1714.87 22433.7 5506.88 2341.53 3331.1 3256.02 124.013 5475.05 2825.85 1135.36 638.73 221.757 1588.17 1377.9 1138.52 466.882 244.805 2537.67 2053.96 1586.12 1520.18 299.911 1124.49 193.271 2032.47 1321.38 1551.95 853.037 767.379 411.968 698.911 355.411 161.419 1220.27 950.348 624.446 328.175 1039.03 3975.07
internal_count=400000 234442 130184 112216 94678 80769 63479 33287 31999 165558 4415 31100 8023 30192 25434 17290 12331 23077 11381 104258 19063 16454 11759 7285 98466 23843 9808 13909 13594 524 23714 11795 4738 2622 919 6655 5792 4750 1951 1022 10857 8767 6746 6371 1254 4695 804 8676 5631 6501 3577 3218 1730 2924 1488 673 5117 3986 2609 1379 4338 17538
is_linear=0
shrinkage=0.05


Tree=9
num_leaves=63
num_cat=0
split_feature=29 8 43 33 25 32 32 32 33 33 32 29 33 32 32 35 6 33 32 31 6 32 15 33 35 35 32 33 37 39 6 0 33 5 32 31 13 0 0 0 0 0 0 0 0 0 38 0 31 33 40 32 31 0 32 39 5 0 0 0 6 1
split_gain=118610 3360.17 2331.11 1957.73 1919.28 1623.95 3240.83 3147.87 941.079 1290.98 1680.82 940.404 634.405 614.382 584.211 544.516 507.648 437.166 651.62 519.617 429.95 337.709 302.106 290.147 242.966 241.758 230.33 230.449 225.732 262.966 217.943 204.165 196.849 183.434 182.501 330.189 177.028 159.75 271.064 280.491 255.556 214.853 197.453 159.16 160.688 191.156 156.209 155.027 152.754 277.821 152.17 199.175 152.014 149.833 149.786 160.577 151.525 146.647 136.225 135.428 132.259 131.319
threshold=-0.11833484070553114 1.0000000180025095e-35 1.0000000180025095e-35 -0.86373157474397666 1.0000000180025095e-35 1.4806249160934006 -0.68609407802117917 1.2051298653500573 0.87858307839747118 -0.071643977033698972 -1.2001143642932928 1.6705863783180537 -0.590207097597087 -0.75891378398989173 1.3864975518441462 1.1383890329845141 5.5000000000000009 0.50524072001091225 -1.2368401738956016 0.78927634707079941 7.5000000000000009 -1.1396268709703585 1.0000000180025095e-35 -0.42901226199250214 0.635462930607406 -0.70509066752359406 -1.056349400002029 -0.51137092218141988 6.5000000000000009 0.52338764249520264 1.0000000180025095e-35 98.500000000000014 1.3593803608282029 1.5532174099746097 -1.2491497276370722 0.705376699830215 1.0000000180025095e-35 11.500000000000002 54.500000000000007 92.500000000000014 79.500000000000014 8.5000000000000018 61.500000000000007 125.50000000000001 126.50000000000001 136.50000000000003 0.81372831078893271 82.500000000000014 -0.80523069200043607 -0.66516618960493001 45.500000000000007 1.5194786087721646 0.11788385989475093 12.500000000000002 1.271441501870145 -1.2175425603956282 0.65927353957575063 137.50000000000003 1.5000000000000002 21.500000000000004 1.0000000180025095e-35 -0.94924693498159363
decision_type=2 2 2 2 2 2 2 2 2 2 2 2 2 2 2 2 2 2 2 2 2 2 2 2 2 2 2 2 2 2 2 2 2 2 2 2 2 2 2 2 2 2 2 2 2 2 2 2 2 2 2 2 2 2 2 2 2 2 2 2 2 2
left_child=1 2 3 15 11 6 8 -8 9 13 17 -2 24 16 -14 30 58 18 19 25 -18 -13 28 37 -9 -11 -22 -28 29 -3 -1 34 -23 36 -27 -36 -31 41 59 40 42 -16 -40 -41 -45 -46 -35 -42 -26 -50 -7 -52 -38 -19 55 56 61 -47 -5 -39 -10 -24
right_child=4 22 -4 5 -6 50 7 12 60 10 -12 21 14 -15 23 -17 20 53 -20 -21 26 32 54 -25 48 31 27 -29 -30 33 -32 -33 -34 46 35 -37 52 38 39 43 47 -43 -44 44 45 57 -48 -49 49 -51 51 -53 -54 -55 -56 -57 -58 -59 -60 -61 -62 -63
leaf_value=0.08264502942595732 0.076679490066858355 0.089556077307082566 -0.07028178106777476 0.01037006175789772 0.072678997765433781 -0.071499428253488775 0.077670690119399546 -0.041560434961068392 0.081386888773840163 -0.055806523476192374 0.080140984198097912 0.044943400321072823 0.076870982838864121 0.078327632881220216 -0.022814459510686152 -0.01975944107065512 0.080829590565717216 0.0064414925792295186 0.07678387596247005 0.084578270119687535 -0.06098889675825904 -0.0056637444255926012 -0.0099728879755055094 0.076804684426756531 -0.048475466373178289 -0.026419997376721856 -0.018209654704032133 0.094119154985612408 -0.065885792822747952 -0.058792915252738276 -0.060711696425860773 -0.047769023992855798 -0.059709107936769562 0.098697804762516606 -0.0023616118190150637 0.08490449930567194 0.016668278939131788 -0.0045692963515225364 0.035027724727887705 -0.050678941523625932 0.080873148951704887 0.071383825980022256 -0.046117293935193759 0.079827784014054562 -0.077527352584128392 0.081029735700209396 -0.026516164871956144 0.014275436160617001 -0.010005230948342429 0.078368939502529655 0.012402048747970369 -0.061879447345218191 -0.073464408712955065 -0.045601534897336808 -0.075163796796180363 -0.0427791684558054 -0.034590763765293908 -0.030655560458469174 -0.055673584051483926 -0.065452250110313068 -0.060602752976196828 0.083105835868310773
leaf_weight=26.526838779449463 509.46812197566032 31.549981996417046 4312.4793385863304 79.703260645270348 34291.007935792208 1626.2592377364635 1421.1861231178045 1269.3774730712175 16.394786015152931 364.49598191678524 521.6178475022316 277.48412749171257 288.03067471086979 103.62630997598171 102.09486328065395 987.40076008439064 102.82703056931496 157.42455922067165 232.93247935175896 128.13256943225861 330.87962529063225 771.20599575340748 77.848674342036247 117.50695635378361 173.48392409086227 368.58975721895695 752.01938301324844 48.501570239663124 16565.198561578989 4952.1505956947803 5589.5678812265396 271.79187449812889 215.58778052031994 28.514858275651932 458.00641074776649 141.8598690032959 145.23453703522682 137.64587394893169 135.15420201420784 282.11001136898994 204.88211323320866 148.23878838121891 168.02893060445786 54.624390199780464 78.351632952690125 56.696651473641396 191.83267711102962 152.76394647359848 550.46516011655331 105.95610667765141 134.7839292883873 272.18760281801224 68.855524137616158 1127.230719357729 233.88109490275383 820.26816858351231 159.3900603055954 60.751799315214157 3495.6334788650274 272.57213650643826 2539.5446639508009 73.543224021792412
leaf_count=111 2271 129 19698 327 158103 7341 6237 5342 70 1532 2293 1143 1270 451 416 4071 440 653 1029 536 1413 3131 315 518 722 1499 3124 199 74623 21897 24569 1125 910 115 1849 590 600 562 552 1151 835 607 686 223 321 231 804 623 2257 459 565 1210 298 4733 1042 3472 664 248 15175 1114 11207 299
internal_value=2.30717e-05 -0.0473469 -0.0362675 -0.0305501 0.0700556 -0.0224188 -0.0173732 0.0130524 -0.0330176 -0.025168 -0.00316607 0.0193348 -0.00801685 -0.0420585 0.0103682 -0.0540115 -0.044655 -0.0165383 -0.001712 -0.0122701 -0.0169996 -0.00377374 -0.0615683 0.000646008 -0.0278066 -0.020011 -0.0259015 -0.0113868 -0.062986 -0.0541184 -0.0600322 -0.00948333 -0.0174811 -0.0549625 0.00126 0.018278 -0.0568682 -0.00418235 -0.00998429 0.00206524 0.0238282 0.0329527 -0.00992803 -0.0249307 0.00406408 -0.0170769 -0.0102523 0.0524527 -0.00676091 0.00426182 -0.0646525 -0.0372691 -0.0123176 -0.0392202 -0.0387285 -0.031184 -0.000559938 0.0232395 -0.0541997 -0.0450417 -0.0596869 0.0352349
internal_weight=89383.4 53318.6 29970.3 25657.9 36064.8 19054.4 17021.1 5779.92 11241.2 8685.27 3772.08 1773.75 4358.74 4913.19 2259.45 6603.5 4809.56 3250.46 1965.81 1732.88 1234.23 1264.28 23348.3 1971.42 2099.28 1604.74 1131.4 800.521 21983.3 5418.14 5616.09 1240.25 986.794 5386.59 968.456 599.866 5166.24 1853.92 1603.58 1193.36 660.829 250.334 303.183 532.534 250.424 195.8 220.348 357.646 829.905 656.421 2033.23 406.972 214.09 1284.66 1364.93 1131.05 310.782 117.448 3575.34 410.218 2555.94 151.392
internal_count=400000 234442 130184 110486 165558 81735 72619 24374 48245 36968 15839 7455 18137 21129 9357 28751 20678 13546 8160 7131 5176 5184 104258 8087 8780 6595 4736 3323 98466 23843 24680 5063 4041 23714 3938 2439 22795 7569 6546 4870 2696 1023 1238 2174 1023 800 919 1458 3438 2716 9116 1775 898 5386 5792 4750 1278 479 15502 1676 11277 614
is_linear=0
shrinkage=0.05


Tree=10
num_leaves=63
num_cat=0
split_feature=25 8 33 33 32 32 32 33 42 15 6 33 32 31 33 33 32 15 6 32 33 0 28 40 1 0 32 6 3 32 33 31 33 13 31 33 41 32 33 31 32 0 33 33 6 32 31 40 32 32 33 4 3 1 1 1 31 33 33 33 32 40
split_gain=108729 3655.22 2529.21 2067.38 3165.48 2166.58 3104.97 1026.43 1940.76 586.982 585.197 564.497 553.169 501.4 613.529 429.109 939 338.806 314.333 279.695 271.491 269.857 251.034 235.485 228.696 234.569 211.582 206.609 199.999 197.647 197.599 192.656 463.099 179.138 174.285 395.581 170.652 161.821 159.994 190.924 158.272 154.681 146.419 723.316 145.287 144.098 830.611 142.908 141.783 169.748 153.412 133.056 212.357 221.892 208.953 197.656 155.024 131.812 127.501 139.97 126.381 235.695
threshold=1.0000000180025095e-35 1.0000000180025095e-35 1.2139160988531914 -0.86373157474397666 1.4806249160934006 -0.75891378398989173 1.2051298653500573 -0.25519681378281617 1.0000000180025095e-35 1.0000000180025095e-35 5.5000000000000009 -0.590207097597087 1.3864975518441462 0.95711533553297135 0.50527630683676483 -0.071643977033698972 -1.2368401738956016 1.0000000180025095e-35 7.5000000000000009 -1.056349400002029 -0.42901226199250214 98.500000000000014 -0.10143336200641027 19.500000000000004 1.4444308332778573 13.500000000000002 -0.95176008858387728 1.0000000180025095e-35 0.18633462128867251 -0.53077219420353294 -0.66516618960493001 -0.80523069200043607 -0.66516618960493001 1.0000000180025095e-35 -0.76325898704989914 -0.73593748796181946 1.0000000180025095e-35 1.271441501870145 0.50524072001091225 0.78927634707079941 -0.52957279914125599 1.5000000000000002 -1.1194574354933067 -1.0571744020489515 1.0000000180025095e-35 1.3865060678522221 -0.88914347561786611 45.500000000000007 0.56238509073767762 -0.52957279914125599 -1.0571427621094112 -0.99157859538735493 0.64248042086983814 1.1171326388344236 1.0449520313609626 -1.1667570365162605 -0.38562838035386965 -0.42901226199250214 1.7371933624184843 -0.86373157474397666 1.5194786087721646 45.500000000000007
decision_type=2 2 2 2 2 2 2 2 2 2 2 2 2 2 2 2 2 2 2 2 2 2 2 2 2 2 2 2 2 2 2 2 2 2 2 2 2 2 2 2 2 2 2 2 2 2 2 2 2 2 2 2 2 2 2 2 2 2 2 2 2 2
left_child=1 2 3 9 5 7 -7 10 -9 27 41 23 -13 14 15 -10 21 22 -12 -15 45 28 24 31 25 29 -20 -1 38 57 -28 -8 34 36 -33 -36 44 40 39 -17 -19 -5 -29 -44 -27 -14 -47 -45 49 -11 -51 55 -53 54 -54 -46 -57 -3 59 -42 61 -6
right_child=-2 17 -4 4 60 6 11 8 13 48 18 12 20 19 -16 16 -18 37 26 -21 -22 -23 -24 -25 -26 33 30 42 -30 -31 -32 32 -34 -35 35 -37 -38 -39 -40 -41 58 -43 43 47 51 46 -48 -49 -50 50 -52 52 53 -55 -56 56 -58 -59 -60 -61 -62 -63
leaf_value=0.080410607681034252 0.071026694657927894 -0.050361170062036734 -0.065437868743955893 0.015749797171032504 -0.062788059816759931 0.075299273385902712 -0.047313005838070223 0.077924992161666901 -0.052516035913584794 -0.049233208285823664 0.07904662323137536 0.074812118390060592 -0.020478601204246532 -0.043026102383152659 0.080012640194059625 0.0058525338833566353 0.074980438084963671 -0.045781522691710291 -0.042625833309212005 0.10067546365898349 0.074873487462866331 -0.044726884785599635 0.007286239227524075 -0.043666935974995345 -0.071516603584055607 0.10471967202180671 -0.0085764505677868811 -0.065348105055410652 -0.032784422217378338 -0.056246494066311728 0.084638487545421692 -0.045350421797017315 0.084458395251270607 -0.013340389398469064 -0.021146149247588484 0.086060342936622514 -0.06511767959217081 -0.072867000695203382 -0.028272498429594079 0.077339221070872613 -0.013497646665634433 -0.054995516582358295 0.1105625057806706 -0.05753427195780389 -0.05630449015284085 -0.017619794845001074 0.081140159565594214 -0.033071518980853691 -0.047878272924907282 0.0053014531998416964 0.085365067195002572 -0.068322629479892122 -0.032576783794227571 -0.057967935828692897 0.11950194085320109 -0.071589376825999834 0.016203911472210987 -0.0092457047234691236 -0.051214978797325589 0.048663747008506585 -0.070528576276400315 0.012946087173305525
leaf_weight=27.932160913944244 33358.270687699318 301.51263517141342 4896.308867290616 79.137697175145149 410.70203821361065 1563.9293563514948 269.64965789020061 570.59767234325409 571.45631228387356 119.2396727502346 88.453873813152313 292.31943446397781 748.70291693508625 1795.0751156359911 186.93717336654663 982.70717373490334 324.62393188476562 590.55730867385864 500.89953464269638 34.399968683719635 117.29839225113392 596.87994487583637 136.50236159563065 954.26836359500885 3989.7243880927563 14.199216693639753 498.6630547195673 2362.4274235069752 516.13896743953228 1040.8384703844786 64.064275190234184 285.93977981805801 139.84847505390644 201.27277979254723 367.24532677233219 112.26159653067589 9373.3014903664589 235.67044365406036 305.97845137119293 103.14303158223629 328.15326443314552 3024.5143809169531 69.238170087337494 2877.6975812762976 426.26049587130547 823.65919733047485 286.98783779144287 755.31929372251034 171.86579714715481 385.82161745429039 70.754985302686691 2468.3836452811956 958.74636079370975 2028.5836154818535 23.022233843803406 64.26327508687973 229.66251038014889 552.41404478251934 138.09829795360565 124.94439399242401 2392.3443239629269 136.8142591714859
leaf_count=119 158104 1347 22674 326 1877 7055 1135 2555 2496 496 385 1323 3058 7782 809 4017 1468 2525 2138 144 530 2522 572 4071 18543 58 2065 10576 2177 4723 268 1190 609 849 1493 473 43235 1073 1262 453 1373 13333 288 12819 1909 3350 1220 3292 713 1559 298 11198 4231 9221 96 290 983 2446 582 523 11129 572
internal_value=2.76555e-05 -0.0437438 -0.0324732 -0.0262615 -0.0178312 -0.00917133 0.0147915 -0.0231189 -0.00977443 -0.0498561 -0.041893 -0.00672428 0.0106264 -0.0190138 -0.00814952 -0.0129992 -0.00501477 -0.0587293 -0.0114544 -0.040316 0.00112836 -0.0153866 -0.0602692 -0.0252158 -0.060695 -0.0582526 -0.0189921 -0.0549872 -0.00620342 -0.0416162 0.00203997 -0.0102234 0.000822555 -0.0602487 -0.0144604 0.00395519 -0.060854 -0.035029 0.0036518 0.012654 -0.0274734 -0.0531896 -0.0556129 -0.0493979 -0.0544199 -0.00352499 0.00789998 -0.0524508 -0.00803632 0.00385301 0.0177357 -0.054787 -0.0574447 -0.0485215 -0.0289937 -0.0345567 -0.00299183 -0.0237732 -0.00917196 0.00363965 -0.0655644 -0.0438554
internal_weight=87466.6 54108.4 30882.2 25985.9 19145.6 16205.8 5962.11 10243.7 5987.94 6840.3 4255.73 4398.18 2268.97 5417.34 3587.86 3400.93 2829.47 23226.1 1152.08 1829.48 1976.65 2504.85 21808.7 2129.21 21672.2 17682.5 1063.63 6092.61 1907.97 1894.77 562.727 1174.94 905.295 15787.7 765.447 479.507 15586.4 1417.42 1391.83 1085.85 1181.75 3103.65 6064.68 3702.26 6213.12 1859.35 1110.65 3633.02 747.682 575.816 456.577 6198.92 5478.74 3010.35 981.769 720.186 293.926 853.927 591.196 453.098 2939.86 547.516
internal_count=400000 241896 136119 113445 83285 69707 25507 44200 25685 30160 18515 18452 9481 23130 15204 14395 11899 105777 4856 7926 8158 10431 99701 8971 99129 80586 4471 27094 7909 8516 2333 4900 3765 72070 3156 1966 71221 6076 5732 4470 5003 13659 26975 16399 27986 7628 4570 16111 3066 2353 1857 27928 24746 13548 4327 3182 1273 3793 2478 1896 13578 2449
is_linear=0
shrinkage=0.05


Tree=11
num_leaves=63
num_cat=0
split_feature=29 8 43 33 25 32 32 32 29 33 33 32 33 32 32 35 31 32 32 32 33 15 35 33 37 39 0 35 33 5 42 13 32 31 33 32 31 5 0 0 0 0 0 0 1 0 0 0 0 32 32 0 31 33 2 0 0 33 2 3 5 33
split_gain=101853 2943.62 2085.19 1667.04 1665.53 1407.22 2744.93 2723.81 830.752 825.633 1093.68 1474.59 528.322 520.364 504.93 494.733 379.758 1064.03 294.034 290.353 1296.38 279.766 249.733 248.915 219.444 242.93 211.869 204.922 175.621 170.59 159.509 159.282 153.849 822.183 148.283 244.839 417.536 142.776 142.547 242.649 250.111 228.65 192.215 175.476 142.324 141.926 142.809 172.681 140.248 135.626 147.894 131.228 127.29 234.981 126.416 126.112 276.235 125.303 124.457 123.573 246.366 122.578
threshold=-0.11833484070553114 1.0000000180025095e-35 1.0000000180025095e-35 -0.86373157474397666 1.0000000180025095e-35 1.4806249160934006 -0.68609407802117917 1.2051298653500573 1.6705863783180537 0.87858307839747118 -0.071643977033698972 -1.2001143642932928 -0.590207097597087 -0.75891378398989173 1.3864975518441462 1.1383890329845141 0.95711533553297135 -1.2368401738956016 -1.1396268709703585 -0.95176008858387728 -0.66516618960493001 1.0000000180025095e-35 -0.72278853227480144 -0.42901226199250214 6.5000000000000009 0.52338764249520264 98.500000000000014 0.635462930607406 1.3593803608282029 1.5532174099746097 1.0000000180025095e-35 1.0000000180025095e-35 -0.82764979472324518 0.2437896168960553 0.50524072001091225 -1.2491497276370722 0.705376699830215 1.6069590567346903 11.500000000000002 54.500000000000007 92.500000000000014 79.500000000000014 8.5000000000000018 61.500000000000007 -1.2211269916916934 125.50000000000001 126.50000000000001 136.50000000000003 82.500000000000014 1.271441501870145 -0.52957279914125599 137.50000000000003 -0.80523069200043607 -0.66516618960493001 -0.068124805554035203 117.50000000000001 114.50000000000001 -0.43014868047989446 6.6166829226934585 0.72431958875946678 -1.782719638669731 -0.42901226199250214
decision_type=2 2 2 2 2 2 2 2 2 2 2 2 2 2 2 2 2 2 2 2 2 2 2 2 2 2 2 2 2 2 2 2 2 2 2 2 2 2 2 2 2 2 2 2 2 2 2 2 2 2 2 2 2 2 2 2 2 2 2 2 2 2
left_child=1 2 3 15 8 6 9 -8 -2 10 13 16 27 19 -14 -1 17 22 -10 61 32 24 -12 38 25 -3 34 -9 -20 31 -7 54 -21 -34 35 -24 -37 -31 42 -40 41 43 -16 -41 -33 -42 -47 -48 -43 50 -23 -49 -29 -54 -27 56 -17 -46 59 -56 -61 -5
right_child=4 21 -4 5 -6 30 7 12 18 -11 11 -13 14 -15 23 55 -18 -19 28 20 -22 49 26 -25 -26 29 -28 52 -30 37 -32 44 33 -35 -36 36 -38 -39 39 40 45 48 -44 -45 57 46 47 51 -50 -51 -52 -53 53 -55 58 -57 -58 -59 -60 60 -62 -63
leaf_value=-0.056461522958186676 0.074485844134222517 0.088029154564224277 -0.067024476222936669 -0.06173575844252302 0.069520443062906459 0.10275152710200947 0.07397611110557796 -0.038386470795322147 0.043445079866683022 -0.056293868171137587 -0.049086507466852586 0.076994733479627195 0.073093732381384127 0.074298665555447271 -0.021388544843748043 -0.020449012945746952 -0.053666866323627486 0.075654663869915276 -0.0039549644289005132 -0.052393652132187843 0.094108514095925078 -0.047417706958426814 -0.02514934975817483 0.073025589742318528 -0.06244101942309687 -0.058049341302235685 -0.042428143281356752 -0.044645105515446704 -0.055526634385202028 0.094755040753314645 -0.062450991939708149 -0.071325978314366129 -0.045350396420096722 0.10682498420853098 -0.031369656901474835 -0.0022271870745053609 0.080281881635754879 -0.024031688523019998 -0.042656385174992574 0.033203217009728996 -0.047926675756004324 0.077215647617202191 0.068080750162197556 -0.043566615409577743 0.049046630317325507 0.075909199717710152 -0.073991068499329932 0.07725781606408233 0.013612793950837252 -0.071574016844668673 -0.010938155674044853 -0.028781103060188235 -0.0089745483064032783 0.074102861707599318 -0.037057295590560937 -0.064939978558276032 0.074221695837048046 -0.049709408794595115 -0.07280414764035173 -0.022419663026606005 0.13059987191771902 -0.040371747036390848
leaf_weight=5407.3603787720203 491.43134239315987 31.293826147913933 4092.821957141161 1501.4356409311295 32400.918302938342 14.614237204194067 1353.4064699411392 1245.0194414258003 275.30170634388924 2462.2606007903814 551.0253289937973 498.58826170861721 273.75660860538483 98.780935138463974 101.53334851562977 768.40010115504265 540.06363800168037 334.69673746824265 769.30630411207676 1073.9762346744537 198.72712215781212 543.2373438179493 367.17678013443947 111.68454220890999 15807.48711887002 4255.8911416083574 402.36374214291573 169.94929549098015 210.17843581736088 29.111419185996056 1925.8653400242329 66.834249421954155 579.2420419305563 104.70944754779339 313.08194519579411 457.5876090824604 230.41486552357674 188.35628336668015 406.33018945157528 134.32427352666855 279.47276017069817 202.39630398154259 146.39640262722969 166.62187086045742 98.087081089615822 53.957511320710182 77.138296917080879 56.264468595385551 151.99868106842041 222.02974727749825 569.65063007175922 60.321465581655502 546.07321098446846 100.72024616599083 248.98099118471146 123.85935063660145 85.525646328926086 47.60401363670826 134.7815632969141 86.627513751387596 37.639385297894478 1220.0382088720798
leaf_count=24680 2271 129 19698 6720 158103 59 6237 5342 1143 11277 2361 2293 1270 451 416 3191 2328 1513 3131 4726 838 2356 1499 518 74623 19604 1703 722 910 118 9057 310 2539 434 1301 1849 992 801 1676 552 1151 835 607 686 393 223 321 231 623 1042 2394 248 2257 459 1113 529 351 195 626 394 160 5421
internal_value=3.21423e-05 -0.0444653 -0.0339501 -0.0285126 0.0669568 -0.0209134 -0.0161955 0.0121444 0.0193853 -0.0308072 -0.0233986 -0.00297057 -0.00738986 -0.0391985 0.0095215 -0.0505428 -0.0154474 -0.00767342 -0.00219476 -0.0415976 -0.0268994 -0.0580934 -0.0196912 0.000583715 -0.0595027 -0.0506115 -0.0105381 -0.0256192 -0.0150309 -0.0514494 -0.061199 -0.0533438 -0.0405863 -0.0220336 -0.00115421 0.0078084 0.0254058 -0.00807102 -0.00382215 -0.00932739 0.00212355 0.0227498 0.0314269 -0.00928492 -0.010957 -0.0235083 0.00403225 -0.0159905 0.0499623 -0.0358831 -0.0287522 0.0223729 -0.00614862 0.00396419 -0.0552335 -0.0178034 -0.0109538 0.0167322 -0.0316275 -0.0167295 0.0239562 -0.0521619
internal_weight=85504.7 51357.6 28990 24897.2 34147.1 18512 16571.5 5637.37 1746.22 10934.2 8471.91 3695 4283.96 4776.91 2222.2 6385.15 3196.41 2656.35 1254.79 4678.13 1956.65 22367.6 2321.65 1948.44 21032.7 5225.21 1770.62 2061.76 979.485 5193.91 1940.48 4976.45 1757.93 683.951 1368.26 1055.18 688.002 217.468 1836.76 1588.83 1182.5 655.341 247.93 300.946 212.525 527.155 247.682 193.724 354.395 1334.92 1112.89 116.586 816.743 646.793 4763.92 977.785 853.926 145.691 508.029 373.248 124.267 2721.47
internal_count=400000 234442 130184 110486 165558 81735 72619 24374 7455 48245 36968 15839 18137 21129 9357 28751 13546 11218 5184 20678 8537 104258 9705 8087 98466 23843 7344 8780 4041 23714 9116 22795 7699 2973 5641 4340 2841 919 7569 6546 4870 2696 1023 1238 898 2174 1023 800 1458 5792 4750 479 3438 2716 21897 4071 3542 588 2293 1667 554 12141
is_linear=0
shrinkage=0.05


Tree=12
num_leaves=63
num_cat=0
split_feature=29 8 43 25 33 32 32 32 33 33 32 29 6 31 32 33 32 35 6 15 33 32 32 33 35 31 1 43 41 13 0 0 31 33 35 6 33 42 1 6 35 36 4 1 1 39 5 1 39 5 1 31 31 0 0 0 0 0 0 0 0 0
split_gain=94452.4 2766.92 1978.41 1606.58 1538.24 1313.81 2519.48 2532.49 780.441 798.926 996.784 775.486 497.665 488.033 1279.91 481.262 470.704 468.525 371.727 272.521 268.278 264.459 242.328 231.152 229.346 215.656 210.476 224.118 259.506 245.538 241.263 193.416 188.08 1081.13 195.341 187.826 162.136 146.778 143.372 138.865 137.154 168.339 286.931 184.071 152.304 200.946 219.992 163.111 136.517 138.055 164.904 133.524 212.37 129.386 220.278 227.137 207.523 174.923 159.072 128.973 129.926 158.145
threshold=-0.11833484070553114 1.0000000180025095e-35 1.0000000180025095e-35 1.0000000180025095e-35 -0.86373157474397666 1.4806249160934006 -0.68609407802117917 1.2051298653500573 1.0435690164297053 -0.071643977033698972 -1.1395808022537424 1.6705863783180537 5.5000000000000009 0.95711533553297135 -1.2368401738956016 -0.590207097597087 1.3864975518441462 1.1383890329845141 7.5000000000000009 1.0000000180025095e-35 1.2139160988531914 -0.75891378398989173 -0.95176008858387728 -0.42901226199250214 -0.72278853227480144 -0.21776266376853792 1.4444308332778573 1.0000000180025095e-35 1.0000000180025095e-35 1.0000000180025095e-35 13.500000000000002 98.500000000000014 -0.80523069200043607 -0.66516618960493001 0.635462930607406 1.0000000180025095e-35 -0.66516618960493001 1.0000000180025095e-35 -1.2211269916916934 7.5000000000000009 -1.3024626453691577 -0.75664982957364035 -0.99157859538735493 -1.1667570365162605 1.1171326388344236 -0.33248481476297725 1.4003095525281262 1.0449520313609626 -1.2175425603956282 0.65927353957575063 -0.94924693498159363 0.78851163980259653 0.705376699830215 11.500000000000002 54.500000000000007 92.500000000000014 79.500000000000014 8.5000000000000018 61.500000000000007 125.50000000000001 126.50000000000001 136.50000000000003
decision_type=2 2 2 2 2 2 2 2 2 2 2 2 2 2 2 2 2 2 2 2 2 2 2 2 2 2 2 2 2 2 2 2 2 2 2 2 2 2 2 2 2 2 2 2 2 2 2 2 2 2 2 2 2 2 2 2 2 2 2 2 2 2
left_child=1 2 4 11 17 6 8 -8 9 12 13 -2 21 14 24 32 -17 35 -14 26 25 -6 -20 53 -11 -13 27 28 30 -30 -3 39 -9 34 -34 -1 -24 -7 -31 51 -32 44 43 -43 47 46 -46 -42 49 50 -21 52 -26 57 -55 56 58 -18 -56 -57 -61 -62
right_child=3 19 -4 -5 5 37 7 15 -10 10 -12 20 18 -15 -16 16 23 -19 22 48 -22 -23 36 -25 31 -27 -28 -29 29 38 40 -33 33 -35 -36 -37 -38 -39 -40 -41 41 42 -44 -45 45 -47 -48 -49 -50 -51 -52 -53 -54 54 55 59 -58 -59 -60 60 61 -63
leaf_value=0.079307278309005122 0.072760517461097948 -0.01615252436892808 -0.065560033829433526 0.068143118253571194 -0.049189996623107968 0.097610017005178462 0.072284113586041365 -0.049964818187341081 -0.059508050913905298 -0.047221200372386064 0.074147294777262701 -0.030971924365047254 0.075133466291942494 -0.042662000605010617 0.072831986708871629 0.071467162708514539 -0.020359805355858563 -0.016997726222348242 -0.042272783788684154 -0.018707513063727876 -0.048498776860506569 0.073834743332954755 -0.0057007629475857042 0.071399300864697077 0.0057241144060196994 0.022786299013917433 -0.068588115143119341 -0.067913026685179179 -0.059750975880839267 -0.071220932098366371 -0.017326598331506824 -0.040706376400421268 -0.047602368899106136 0.096817262361956952 -0.0085311269720658566 -0.055413253167228352 0.078994763464374632 -0.060844027162016916 0.027676851468168551 -0.042591438437393048 -0.023629958547520036 -0.050286916566077214 -0.06539835496844032 0.0067048287510446851 0.14334135288157321 -0.062622291513336356 -0.024537152547606876 0.11670799744739263 -0.044223349789190326 -0.037294358400907147 0.081410221886581022 -0.010021354547091171 0.079492799247687262 -0.040757360327863791 0.031570348890954475 -0.045860774119554776 0.047705448298188555 0.065164560786880807 -0.041632277130208742 0.072657161650497612 -0.071356530986189978 0.021343871754167208
leaf_weight=25.885623797774315 478.26614557206631 663.64031675457954 3977.953054100275 31427.709661334753 3409.5476564019918 14.619621768593786 1316.7630670815706 536.85126017034054 1827.5297853052616 544.32781185209751 340.39880181849003 247.85871152579784 114.22423003613949 1134.7826132327318 455.82218107581139 266.18210408091545 101.34046870470047 973.09969608485699 574.74166978895664 93.7039675116539 249.26972012221813 44.133051708340645 498.47006867825985 108.59751978516579 399.94383676350117 752.78707595169544 3779.9781099557877 2997.5892514586449 8034.8616089373827 51.213326588273048 333.67527133226395 398.51667098701 774.3195772767067 187.50212533771992 545.74724045395851 5274.1646519303322 63.622829601168633 1879.0879259705544 128.10334670543671 175.52892279624939 638.63544854521751 334.00627787411213 2365.5240017175674 245.7095655053854 21.701514169573784 737.77396182715893 185.71624377369881 21.290099263191223 965.55463649332523 188.22739623486996 73.083365187048912 655.73222275078297 129.02744875848293 404.06193225085735 134.21587264537811 277.5135552585125 352.6821072101593 145.33139917254448 165.67417335510254 53.567992106080055 76.018913149833679 116.10880476236343
leaf_count=111 2271 2977 19698 158103 15502 59 6237 2329 8679 2361 1605 1008 524 4980 2147 1270 416 4071 2527 391 1080 202 2098 518 1615 3096 18537 14491 38888 244 1510 1703 3362 832 2257 24569 276 9057 517 728 2876 1549 11242 1075 96 3502 874 88 4283 819 299 2740 558 1676 552 1151 1458 607 686 223 321 479
internal_value=3.68359e-05 -0.0431261 -0.0328537 0.0655621 -0.027542 -0.0201898 -0.0156172 0.0117063 -0.0297344 -0.023646 -0.00788733 0.0186213 -0.0378267 -0.0150621 -0.00370681 -0.00708132 0.00913987 -0.0488974 -0.0108012 -0.0565058 -0.00209467 -0.0476144 -0.0194458 0.000560685 -0.0188599 0.00946369 -0.0579219 -0.0555155 -0.0528142 -0.0584596 -0.0444537 -0.0100772 -0.0245493 -0.0154926 -0.031455 -0.0547528 0.00388931 -0.059613 -0.000564708 -0.00109754 -0.0482978 -0.0505674 -0.0576711 -0.0261256 -0.0375268 -0.0503989 -0.00688781 -0.0190779 -0.0344749 -0.00794254 0.0251549 0.00504917 0.023739 -0.00365205 -0.00891332 0.00202829 0.0217084 0.0300142 -0.00885415 -0.0225076 0.00385738 -0.0153268
internal_weight=83489.5 50333.6 28473.6 33155.9 24495.7 18222.5 16328.8 5562.48 10766.3 8938.82 4234.08 1728.18 4704.74 3893.68 2758.9 4245.72 2201.29 6273.15 1251.06 21860 1249.92 3453.68 1136.83 1935.11 2303.08 1000.65 20539.4 16759.4 13761.9 8214.18 5547.67 1758.75 2044.42 1507.57 1320.07 5300.05 562.093 1893.71 179.317 1360.23 4884.03 4550.36 2945.24 579.716 1605.12 945.192 207.418 659.926 1320.57 355.015 166.787 1184.7 528.971 1826.52 1579.84 1175.78 652.572 246.672 299.89 523.209 245.696 192.128
internal_count=400000 234442 130184 165558 110486 81735 72619 24374 48245 39566 18437 7455 21129 16832 11852 18137 9357 28751 5425 104258 5184 15704 4901 8087 9705 4104 98466 79929 65438 39649 25789 7344 8780 6451 5619 24680 2374 9116 761 5641 22812 21302 13866 2624 7436 4472 970 2964 5792 1509 690 4913 2173 7569 6546 4870 2696 1023 1238 2174 1023 800
is_linear=0
shrinkage=0.05


Tree=13
num_leaves=63
num_cat=0
split_feature=29 8 33 25 32 33 32 32 29 33 32 33 32 32 32 35 6 6 1 1 31 6 32 41 7 13 35 33 33 32 36 40 6 32 35 40 3 1 32 4 33 32 32 33 31 33 6 33 6 32 33 31 36 2 3 2 32 33 33 32 31 2
split_gain=87684.6 2608.01 1831.19 1553.32 1548.3 2182.21 1575.77 2730.2 725.307 679.469 996.722 523.171 1366.26 559.915 865.357 446.987 434.237 346.991 313.37 263.387 271.332 257.126 253.2 223.848 231.356 211.408 211.139 208.927 247.519 991.835 202.791 178.078 173.39 163.692 160.906 219.235 299.361 234.961 160.121 154.739 151.802 288.421 207.434 151.127 149.706 332.986 148.707 148.489 141.09 140.225 189.874 158.572 136.992 136.124 158.992 167.459 126.487 805.428 125.147 179.537 287.625 122.109
threshold=-0.11833484070553114 1.0000000180025095e-35 1.2139160988531914 1.0000000180025095e-35 1.5194786087721646 -0.86373157474397666 -0.75891378398989173 1.2051298653500573 1.6705863783180537 -0.25519681378281617 -1.056349400002029 0.87858307839747118 -1.2001143642932928 -1.2001183382928582 -1.2368401738956016 1.1383890329845141 5.5000000000000009 4.5000000000000009 0.057605510178482408 1.4444308332778573 -0.76325898704989914 7.5000000000000009 -1.1396268709703585 1.0000000180025095e-35 1.0000000180025095e-35 1.0000000180025095e-35 -0.72278853227480144 1.2139160988531914 -0.42904792940527708 -1.056349400002029 0.66725082794757251 7.5000000000000009 1.0000000180025095e-35 -1.056349400002029 1.1440029578097648 46.500000000000007 -0.77272911212497619 -1.4206354837646185 0.18990238743732807 -0.99157859538735493 -0.66516618960493001 1.3316375104331828 1.3316540889546384 -0.51137092218141988 -0.76325898704989914 -0.73593748796181946 7.5000000000000009 1.3593803608282029 6.5000000000000009 1.4362067084785164 -0.51137092218141988 -0.84719176451954303 -1.4626675935032263 -0.20374397610640785 0.6748220689702914 2.9271036220949482 -0.89202303928194204 -0.73593748796181946 0.50524072001091225 -1.2491497276370722 0.705376699830215 -0.20374397610640785
decision_type=2 2 2 2 2 2 2 2 2 2 2 2 2 2 2 2 2 2 2 2 2 2 2 2 2 2 2 2 2 2 2 2 2 2 2 2 2 2 2 2 2 2 2 2 2 2 2 2 2 2 2 2 2 2 2 2 2 2 2 2 2 2
left_child=1 2 4 8 5 15 9 -8 -2 16 11 12 13 14 26 32 56 18 40 20 25 -18 -10 24 27 38 -11 28 53 39 -20 -28 -1 -23 35 -25 37 -37 -3 -30 44 -42 -43 -35 -9 -46 52 -24 -38 50 51 -44 -33 -22 -55 -56 -7 -58 59 -54 -61 -17
right_child=3 19 -4 -5 -6 6 7 17 22 10 -12 -13 -14 -15 -16 61 21 -19 30 -21 23 33 47 34 -26 -27 31 -29 29 -31 -32 46 -34 43 -36 36 48 -39 -40 -41 41 42 49 -45 45 -47 -48 -49 -50 -51 -52 -53 58 54 55 -57 57 -59 -60 60 -62 -63
leaf_value=0.077041463453007317 0.071191643083539743 0.12775162950816277 -0.06161285256859711 0.066879547004459555 -0.066333163554794031 -0.058231372008590888 0.070377198212125056 -0.045530934731466584 0.040617118109292506 -0.045453115724761829 0.078789965680392537 -0.051125273544737754 0.078946266079502128 -0.050871741257605768 0.072134845534118489 -0.022320853885922805 0.074828221074637991 -0.029752057892400693 -0.011331018634707557 -0.06722139712580881 -0.04476877136925464 -0.060786720586221921 -0.003841756317459118 -0.060790631630828665 -0.063364154311478724 0.016051413233396466 -0.041404940176362315 -0.059974789871218771 0.018230615505037715 0.1195360490182196 -0.064069939843034787 -0.059043298980955762 -0.053797878025152616 -0.014564790978171888 -0.035352465404154411 0.036207510013335338 -0.034891917232438473 -0.062166829821148163 -0.064851015417761226 -0.036074900434138156 0.083615699660491163 -0.036139999711537113 -0.00086562672836886347 0.094764923480552557 -0.021373201167541791 0.088919977275876819 -0.044218458766400535 -0.051779461146092901 0.024994636758087295 0.0017529632578803717 0.075659393348317561 0.069579669519088672 -0.014532717812898339 -0.067537693327715823 0.071435474922803416 -0.019559673807598182 -0.050001444876341408 0.11911507761580038 -0.021825435575772805 0.0074696494861002998 0.079665141510451079 0.035041799130694627
leaf_weight=25.331517100334167 464.71140426397324 10.710764810442923 4351.3214131742716 30445.324717998505 2192.2718947082758 1951.5422146469355 1350.7657019942999 212.94730262458324 272.15546835958958 537.40822443366051 277.33254778385162 990.08139741420746 385.44927221536636 1048.0371393412352 300.94680517911911 867.23301815986633 76.485191375017166 1536.7128720134497 762.50142349302769 3666.8616213649511 1961.8826134055853 198.63940404355526 768.20132884383202 5774.2426226139069 911.70874890685081 83.043317928910255 351.93252958357334 721.88145376741886 154.22102606296539 128.22872674465179 239.60990926623344 78.904145538806915 5163.7318226248026 733.62341257929802 1012.8225216418505 65.715549200773239 178.04689326882362 776.23478737473488 4506.3719901740551 871.47244213521481 150.24153426289558 201.99380066990852 324.25237902998924 32.923564270138741 261.04703195393085 92.624174848198891 178.57006095349789 204.55857273936272 219.44474500417709 630.09211996197701 197.9830474704504 105.83988364040852 287.60411038994789 82.717750266194344 79.820225983858109 137.42500883340836 824.06053222715855 76.869880869984627 254.90218839049339 382.6597535610199 215.81403779983521 103.73479850590229
leaf_count=111 2271 47 21883 158103 11076 9113 6610 911 1143 2361 1291 4589 1792 4729 1435 3640 352 6700 3345 18537 9262 899 3131 28703 4416 348 1484 3497 671 539 1072 342 24569 3124 4603 316 801 3850 22179 4080 697 878 1325 141 1083 396 752 910 1031 2747 896 523 1184 392 358 628 3801 320 1073 1557 952 431
